{"learner":{"attributes":{"best_iteration":"99","best_ntree_limit":"100","scikit_learn":"{\"use_label_encoder\": false, \"n_estimators\": 100, \"objective\": \"binary:logistic\", \"max_depth\": 4, \"max_leaves\": null, \"max_bin\": null, \"grow_policy\": null, \"learning_rate\": null, \"verbosity\": null, \"booster\": null, \"tree_method\": null, \"gamma\": 3.4150799761829074, \"min_child_weight\": 9, \"max_delta_step\": null, \"subsample\": null, \"sampling_method\": null, \"colsample_bytree\": 0.9513103219715219, \"colsample_bylevel\": null, \"colsample_bynode\": null, \"reg_alpha\": 54, \"reg_lambda\": 0.8655452839992828, \"scale_pos_weight\": null, \"base_score\": null, \"missing\": NaN, \"num_parallel_tree\": null, \"random_state\": null, \"n_jobs\": null, \"monotone_constraints\": null, \"interaction_constraints\": null, \"importance_type\": null, \"gpu_id\": null, \"validate_parameters\": null, \"predictor\": null, \"enable_categorical\": false, \"max_cat_to_onehot\": null, \"eval_metric\": null, \"early_stopping_rounds\": null, \"callbacks\": null, \"classes_\": [0.0, 1.0], \"n_classes_\": 2, \"evals_result_\": {\"validation_0\": {\"auc\": [0.8320982833498966, 0.8330046551941322, 0.9293966488909164, 0.9131653053173278, 0.9437966805261931, 0.9348480827023173, 0.9279325270564794, 0.9447056687348879, 0.9401945666569635, 0.9483338275594106, 0.9455555077177832, 0.9430596113888151, 0.9410896180491394, 0.947795639813016, 0.9502997509291952, 0.9509096839746795, 0.9507319689058045, 0.9502928242925734, 0.951080977183097, 0.9508720995426971, 0.9511650211936584, 0.9510743547123834, 0.9511926386497205, 0.9509511807030997, 0.9512727894927778, 0.9512972813393805, 0.9512965965867511, 0.9513726482227658, 0.9513185187774852, 0.951235005150735, 0.9514290158533222, 0.9513884104361507, 0.951273397944999, 0.9514626996471183, 0.951380250208868, 0.951511836709457, 0.9514458080449103, 0.9515432863535689, 0.9515522856359039, 0.9515364156366581, 0.9515074032798709, 0.9515843550072441, 0.9515749011055727, 0.9515544798599205, 0.9516109972428973, 0.9516047184307691, 0.9515890389163033, 0.9515739438772572, 0.9515592013478701, 0.9516303232420038, 0.9516343523589276, 0.9516440303517226, 0.951636975848032, 0.9516280475938769, 0.9516174835336353, 0.9516098216734479, 0.9516554779738539, 0.9516493532911554, 0.9516416866468563, 0.9516337935697325, 0.9516275050523267, 0.9516239961254137, 0.9516201885490823, 0.9516180026594949, 0.9516651250964182, 0.9516590195811305, 0.951675754767537, 0.9516737988985535, 0.9516792721604515, 0.9516737843095714, 0.951665422658031, 0.9516832200203699, 0.9516873899109263, 0.951685610727986, 0.9516819440259966, 0.9516908976507452, 0.9516893334676546, 0.951684709100603, 0.9516787623899239, 0.9516745658604625, 0.9516903964412435, 0.9516860587129765, 0.9516821149488521, 0.9516953370485929, 0.9516972149874391, 0.9516963995466539, 0.9516928356568726, 0.9516895154761793, 0.9516979899053042, 0.951694689968457, 0.9516994106484963, 0.9516974086449772, 0.9516946631871168, 0.9516926817435826, 0.9516914635945851, 0.9516986394664291, 0.9517001268241423, 0.9516995566009571, 0.951699680537814, 0.9516990787794304]}, \"validation_1\": {\"auc\": [0.8316335937539765, 0.8325179614928632, 0.9291283066120761, 0.9128374121410888, 0.9435818565334859, 0.9345904282062242, 0.9276514802764383, 0.9444883228505554, 0.9399570666650361, 0.948130612443215, 0.9453400380027105, 0.9428343668478311, 0.940854900320232, 0.9475904640228794, 0.9501117298668965, 0.9507348745531575, 0.950564767060541, 0.9501350566478338, 0.9509100962885925, 0.9506988602633469, 0.950993421991308, 0.950909844773963, 0.9510195832132943, 0.9507755450072622, 0.9511005567464595, 0.9511277437875996, 0.9511223142457087, 0.9511998546598143, 0.95114974223771, 0.9510710195117775, 0.9512570179726259, 0.9512138231046094, 0.9510961508691823, 0.9512876185584594, 0.9512046736947285, 0.9513377915901279, 0.9512689191727935, 0.95137000147472, 0.9513801332763426, 0.9513674077031928, 0.9513405404553695, 0.9514110572891374, 0.9514057969068239, 0.9513849852329372, 0.951438024534036, 0.9514333215430429, 0.951419823707152, 0.9514033193654878, 0.9513890653772654, 0.9514596742731225, 0.9514599060204834, 0.9514727337695686, 0.9514661290980193, 0.9514571136537641, 0.9514464602649861, 0.9514388425511806, 0.9514829256031532, 0.9514775140083923, 0.9514707315187565, 0.9514633327394869, 0.9514573760864612, 0.9514528927883491, 0.9514495277014594, 0.951447632951027, 0.9514923294576831, 0.9514873089605683, 0.951502339573121, 0.951501214151541, 0.9515053422915911, 0.9514982303320013, 0.9514906192133654, 0.9515085774864722, 0.9515140487506042, 0.9515139476331459, 0.9515109515220055, 0.951515940444442, 0.9515118729891272, 0.951508198400746, 0.9515032524441921, 0.9514993636388219, 0.9515131776294107, 0.9515083937436771, 0.951505296054102, 0.9515184773434098, 0.9515218472738689, 0.951520629451929, 0.9515157953280494, 0.9515133351280517, 0.9515217345291908, 0.951518164808538, 0.9515240866904501, 0.9515222028315544, 0.9515188599046998, 0.951517260694362, 0.9515154155243274, 0.9515227955378743, 0.9515252916990125, 0.9515270339209484, 0.9515258857180652, 0.9515249955210677]}}, \"_estimator_type\": \"classifier\"}"},"feature_names":["atk_strength","def_strength"],"feature_types":["int","int"],"gradient_booster":{"model":{"gbtree_model_param":{"num_parallel_tree":"1","num_trees":"100","size_leaf_vector":"0"},"tree_info":[0,0,0,0,0,0,0,0,0,0,0,0,0,0,0,0,0,0,0,0,0,0,0,0,0,0,0,0,0,0,0,0,0,0,0,0,0,0,0,0,0,0,0,0,0,0,0,0,0,0,0,0,0,0,0,0,0,0,0,0,0,0,0,0,0,0,0,0,0,0,0,0,0,0,0,0,0,0,0,0,0,0,0,0,0,0,0,0,0,0,0,0,0,0,0,0,0,0,0,0],"trees":[{"base_weights":[1.7079991E-1,-9.907809E-1,1.0592643E0,-1.5389122E0,-5.206421E-1,5.1758814E-1,1.4385418E0,-1.7778136E0,-1.2997195E0,-7.5416154E-1,-2.0884137E-1,2.3886812E-1,7.261448E-1,1.1966532E0,1.5996361E0,-5.5864954E-1,-4.824921E-1,-4.1355094E-1,-3.423683E-1,-2.7243403E-1,-1.7986733E-1,-1.0866409E-1,-3.9491165E-2,2.5834294E-2,9.438873E-2,1.7714949E-1,2.5840262E-1,3.282132E-1,3.8958386E-1,4.5178095E-1,5.078657E-1],"categories":[],"categories_nodes":[],"categories_segments":[],"categories_sizes":[],"default_left":[0,0,0,0,0,0,0,0,0,0,0,0,0,0,0,0,0,0,0,0,0,0,0,0,0,0,0,0,0,0,0],"id":0,"left_children":[1,3,5,7,9,11,13,15,17,19,21,23,25,27,29,-1,-1,-1,-1,-1,-1,-1,-1,-1,-1,-1,-1,-1,-1,-1,-1],"loss_changes":[1.6254419E6,1.7578231E5,1.8324188E5,1.7837E4,2.670421E4,2.1315648E4,2.0299E4,2.0623125E3,1.83E3,4.916758E3,1.8377896E3,1.8004082E3,3.7751328E3,2.0660312E3,2.5764375E3,0E0,0E0,0E0,0E0,0E0,0E0,0E0,0E0,0E0,0E0,0E0,0E0,0E0,0E0,0E0,0E0],"parents":[2147483647,0,0,1,1,2,2,3,3,4,4,5,5,6,6,7,7,8,8,9,9,10,10,11,11,12,12,13,13,14,14],"right_children":[2,4,6,8,10,12,14,16,18,20,22,24,26,28,30,-1,-1,-1,-1,-1,-1,-1,-1,-1,-1,-1,-1,-1,-1,-1,-1],"split_conditions":[1.4E1,7E0,2.1E1,4E0,1.1E1,1.7E1,2.5E1,3E0,6E0,9E0,1.2E1,1.5E1,1.9E1,2.3E1,2.8E1,-5.5864954E-1,-4.824921E-1,-4.1355094E-1,-3.423683E-1,-2.7243403E-1,-1.7986733E-1,-1.0866409E-1,-3.9491165E-2,2.5834294E-2,9.438873E-2,1.7714949E-1,2.5840262E-1,3.282132E-1,3.8958386E-1,4.5178095E-1,5.078657E-1],"split_indices":[0,0,0,0,0,0,0,0,0,0,0,0,0,0,0,0,0,0,0,0,0,0,0,0,0,0,0,0,0,0,0],"split_type":[0,0,0,0,0,0,0,0,0,0,0,0,0,0,0,0,0,0,0,0,0,0,0,0,0,0,0,0,0,0,0],"sum_hessian":[1.575E6,6.8255925E5,8.9244075E5,3.15086E5,3.6747325E5,3.675945E5,5.2484625E5,1.5752325E5,1.5756275E5,2.100125E5,1.5746075E5,1.5744375E5,2.1015075E5,2.0994675E5,3.148995E5,1.0496325E5,5.256E4,1.050145E5,5.254825E4,1.05051E5,1.049615E5,5.24875E4,1.0497325E5,5.243525E4,1.050085E5,1.0510275E5,1.05048E5,1.04909E5,1.0503775E5,1.57367E5,1.575325E5],"tree_param":{"num_deleted":"0","num_feature":"2","num_nodes":"31","size_leaf_vector":"0"}},{"base_weights":[1.2378311E-1,-7.186752E-1,7.6920253E-1,-1.0851167E0,-3.0854532E-1,4.1068876E-1,1.1006461E0,-1.2841603E0,-8.2826966E-1,-4.7190738E-1,-1.4651367E-1,2.1316114E-1,6.1058575E-1,9.4526404E-1,1.2272471E0,-4.2693394E-1,-3.4454295E-1,-2.791071E-1,-2.3329963E-1,-1.6018072E-1,-1.04176834E-1,-6.347485E-2,-4.6786736E-3,3.120534E-2,9.660391E-2,1.5496522E-1,2.1153523E-1,2.6253802E-1,3.0470678E-1,3.5301661E-1,3.909211E-1],"categories":[],"categories_nodes":[],"categories_segments":[],"categories_sizes":[],"default_left":[0,0,0,0,0,0,0,0,0,0,0,0,0,0,0,0,0,0,0,0,0,0,0,0,0,0,0,0,0,0,0],"id":1,"left_children":[1,3,5,7,9,11,13,15,17,19,21,23,25,27,29,-1,-1,-1,-1,-1,-1,-1,-1,-1,-1,-1,-1,-1,-1,-1,-1],"loss_changes":[8.310942E5,9.956484E4,1.0276069E5,1.778225E4,8.249439E3,1.6374992E4,8.72675E3,3.5759688E3,6.973672E2,1.15575E3,1.327436E3,2.4635195E3,1.76975E3,8.9521875E2,8.1321875E2,0E0,0E0,0E0,0E0,0E0,0E0,0E0,0E0,0E0,0E0,0E0,0E0,0E0,0E0,0E0,0E0],"parents":[2147483647,0,0,1,1,2,2,3,3,4,4,5,5,6,6,7,7,8,8,9,9,10,10,11,11,12,12,13,13,14,14],"right_children":[2,4,6,8,10,12,14,16,18,20,22,24,26,28,30,-1,-1,-1,-1,-1,-1,-1,-1,-1,-1,-1,-1,-1,-1,-1,-1],"split_conditions":[1.4E1,8E0,2.2E1,5E0,1.1E1,1.8E1,2.6E1,3E0,6E0,1E1,1.3E1,1.6E1,2E1,2.4E1,2.9E1,-4.2693394E-1,-3.4454295E-1,-2.791071E-1,-2.3329963E-1,-1.6018072E-1,-1.04176834E-1,-6.347485E-2,-4.6786736E-3,3.120534E-2,9.660391E-2,1.5496522E-1,2.1153523E-1,2.6253802E-1,3.0470678E-1,3.5301661E-1,3.909211E-1],"split_indices":[0,0,0,0,0,0,0,0,0,0,0,0,0,0,0,0,0,0,0,0,0,0,0,0,0,0,0,0,0,0,0],"split_type":[0,0,0,0,0,0,0,0,0,0,0,0,0,0,0,0,0,0,0,0,0,0,0,0,0,0,0,0,0,0,0],"sum_hessian":[1.5284735E6,6.6299294E5,8.6548056E5,3.5007553E5,3.129174E5,4.1584116E5,4.496394E5,1.9711078E5,1.5296473E5,1.556522E5,1.5726519E5,2.0929692E5,2.0654423E5,2.0206783E5,2.475716E5,9.718165E4,9.992913E4,5.0336223E4,1.0262851E5,1.0364225E5,5.2009957E4,1.0477616E5,5.2489027E4,1.0475711E5,1.0453982E5,1.03833305E5,1.0271092E5,1.0163086E5,1.0043697E5,1.4900678E5,9.856482E4],"tree_param":{"num_deleted":"0","num_feature":"2","num_nodes":"31","size_leaf_vector":"0"}},{"base_weights":[9.2938155E-2,1.0510365E0,-7.463455E-1,1.4961034E0,6.064486E-1,-2.5207725E-1,-1.1307595E0,1.7699609E0,1.2904854E0,8.5630804E-1,4.1870064E-1,-1.3249609E-2,-4.3091857E-1,-8.8561165E-1,-1.3266003E0,5.842235E-1,5.041661E-1,4.2464337E-1,3.4940934E-1,2.7481553E-1,2.2067131E-1,1.62234E-1,8.885838E-2,1.3909016E-2,-4.01752E-2,-9.413763E-2,-1.6420366E-1,-2.3370026E-1,-2.9750577E-1,-3.5800293E-1,-4.2448413E-1],"categories":[],"categories_nodes":[],"categories_segments":[],"categories_sizes":[],"default_left":[0,0,0,0,0,0,0,0,0,0,0,0,0,0,0,0,0,0,0,0,0,0,0,0,0,0,0,0,0,0,0],"id":2,"left_children":[1,3,5,7,9,11,13,15,17,19,21,23,25,27,29,-1,-1,-1,-1,-1,-1,-1,-1,-1,-1,-1,-1,-1,-1,-1,-1],"loss_changes":[1.1603502E6,1.3321775E5,1.4606831E5,1.8790875E4,1.5747203E4,1.4351322E4,2.0648625E4,2.0900625E3,2.8844375E3,9.5275E2,2.8355703E3,1.0423208E3,2.575961E3,2.0777031E3,2.687375E3,0E0,0E0,0E0,0E0,0E0,0E0,0E0,0E0,0E0,0E0,0E0,0E0,0E0,0E0,0E0,0E0],"parents":[2147483647,0,0,1,1,2,2,3,3,4,4,5,5,6,6,7,7,8,8,9,9,10,10,11,11,12,12,13,13,14,14],"right_children":[2,4,6,8,10,12,14,16,18,20,22,24,26,28,30,-1,-1,-1,-1,-1,-1,-1,-1,-1,-1,-1,-1,-1,-1,-1,-1],"split_conditions":[1.5E1,8E0,2.2E1,4E0,1.1E1,1.8E1,2.6E1,2E0,6E0,1E1,1.3E1,1.7E1,2E1,2.4E1,2.8E1,5.842235E-1,5.041661E-1,4.2464337E-1,3.4940934E-1,2.7481553E-1,2.2067131E-1,1.62234E-1,8.885838E-2,1.3909016E-2,-4.01752E-2,-9.413763E-2,-1.6420366E-1,-2.3370026E-1,-2.9750577E-1,-3.5800293E-1,-4.2448413E-1],"split_indices":[1,1,1,1,1,1,1,1,1,1,1,1,1,1,1,0,0,0,0,0,0,0,0,0,0,0,0,0,0,0,0],"split_type":[0,0,0,0,0,0,0,0,0,0,0,0,0,0,0,0,0,0,0,0,0,0,0,0,0,0,0,0,0,0,0],"sum_hessian":[1.4429908E6,6.7383144E5,7.691594E5,3.366726E5,3.3715884E5,3.36561E5,4.325984E5,1.4426305E5,1.9240955E5,1.4452748E5,1.9263136E5,1.4424145E5,1.9231955E5,1.922393E5,2.403591E5,4.812507E4,9.613797E4,9.629E4,9.611954E4,9.638222E4,4.814526E4,9.626148E4,9.636988E4,9.62463E4,4.7995152E4,9.610454E4,9.6215E4,9.613461E4,9.610469E4,9.6072484E4,1.4428661E5],"tree_param":{"num_deleted":"0","num_feature":"2","num_nodes":"31","size_leaf_vector":"0"}},{"base_weights":[6.907643E-2,-5.4122007E-1,6.184349E-1,-9.637616E-1,-2.6105183E-1,3.2207173E-1,8.7657565E-1,-1.1685319E0,-7.7612567E-1,-4.2652032E-1,-1.00168444E-1,1.7272323E-1,4.3821672E-1,7.278589E-1,1.003031E0,-3.9763364E-1,-3.2757673E-1,-2.6775408E-1,-2.1584955E-1,-1.5529834E-1,-1.0114395E-1,-5.478621E-2,-5.2116322E-3,2.8171849E-2,6.358429E-2,1.0864893E-1,1.547949E-1,1.9896011E-1,2.3821881E-1,2.7753165E-1,3.168553E-1],"categories":[],"categories_nodes":[],"categories_segments":[],"categories_sizes":[],"default_left":[0,0,0,0,0,0,0,0,0,0,0,0,0,0,0,0,0,0,0,0,0,0,0,0,0,0,0,0,0,0,0],"id":3,"left_children":[1,3,5,7,9,11,13,15,17,19,21,23,25,27,29,-1,-1,-1,-1,-1,-1,-1,-1,-1,-1,-1,-1,-1,-1,-1,-1],"loss_changes":[4.7458612E5,7.931155E4,5.692972E4,1.01628125E4,1.0706848E4,5.9846445E3,7.392125E3,1.4027656E3,8.324844E2,1.5716758E3,1.3861619E3,4.5329395E2,1.1054297E3,7.0478906E2,7.8246875E2,0E0,0E0,0E0,0E0,0E0,0E0,0E0,0E0,0E0,0E0,0E0,0E0,0E0,0E0,0E0,0E0],"parents":[2147483647,0,0,1,1,2,2,3,3,4,4,5,5,6,6,7,7,8,8,9,9,10,10,11,11,12,12,13,13,14,14],"right_children":[2,4,6,8,10,12,14,16,18,20,22,24,26,28,30,-1,-1,-1,-1,-1,-1,-1,-1,-1,-1,-1,-1,-1,-1,-1,-1],"split_conditions":[1.5E1,7E0,2.2E1,4E0,1.1E1,1.8E1,2.6E1,2E0,5E0,9E0,1.3E1,1.6E1,2E1,2.4E1,2.8E1,-3.9763364E-1,-3.2757673E-1,-2.6775408E-1,-2.1584955E-1,-1.5529834E-1,-1.0114395E-1,-5.478621E-2,-5.2116322E-3,2.8171849E-2,6.358429E-2,1.0864893E-1,1.547949E-1,1.9896011E-1,2.3821881E-1,2.7753165E-1,3.168553E-1],"split_indices":[0,0,0,0,0,0,0,0,0,0,0,0,0,0,0,0,0,0,0,0,0,0,0,0,0,0,0,0,0,0,0],"split_type":[0,0,0,0,0,0,0,0,0,0,0,0,0,0,0,0,0,0,0,0,0,0,0,0,0,0,0,0,0,0,0],"sum_hessian":[1.4155134E6,6.705186E5,7.4499475E5,2.6725603E5,4.032626E5,3.469191E5,3.9807566E5,1.27653414E5,1.3960262E5,1.9863231E5,2.046303E5,1.5197044E5,1.9494864E5,1.8313472E5,2.1494094E5,4.1642074E4,8.6011336E4,4.537511E4,9.4227516E4,9.804279E4,1.0058952E5,1.022009E5,1.024294E5,5.0957207E4,1.01013234E5,9.891316E4,9.6035484E4,9.3066016E4,9.00687E4,8.757829E4,1.2736265E5],"tree_param":{"num_deleted":"0","num_feature":"2","num_nodes":"31","size_leaf_vector":"0"}},{"base_weights":[5.2168325E-2,8.1643164E-1,-5.941698E-1,1.259123E0,4.9770722E-1,-2.5829178E-1,-9.3156326E-1,1.528025E0,1.1274558E0,6.974988E-1,3.0118066E-1,-7.495086E-2,-4.407316E-1,-7.814726E-1,-1.0822482E0,4.8488364E-1,4.3198147E-1,3.725487E-1,3.0417368E-1,2.40011E-1,1.7862035E-1,1.19173475E-1,6.1579086E-2,3.7331327E-3,-4.885005E-2,-1.0520351E-1,-1.5904458E-1,-2.1037017E-1,-2.583855E-1,-3.022372E-1,-3.4696788E-1],"categories":[],"categories_nodes":[],"categories_segments":[],"categories_sizes":[],"default_left":[0,0,0,0,0,0,0,0,0,0,0,0,0,0,0,0,0,0,0,0,0,0,0,0,0,0,0,0,0,0,0],"id":4,"left_children":[1,3,5,7,9,11,13,15,17,19,21,23,25,27,29,-1,-1,-1,-1,-1,-1,-1,-1,-1,-1,-1,-1,-1,-1,-1,-1],"loss_changes":[6.5786525E5,8.600897E4,8.169917E4,8.896875E3,1.3879867E4,1.2068781E4,8.0374062E3,4.8445312E2,2.1052031E3,1.7650781E3,1.617081E3,1.394657E3,1.4107148E3,1.0708281E3,8.791719E2,0E0,0E0,0E0,0E0,0E0,0E0,0E0,0E0,0E0,0E0,0E0,0E0,0E0,0E0,0E0,0E0],"parents":[2147483647,0,0,1,1,2,2,3,3,4,4,5,5,6,6,7,7,8,8,9,9,10,10,11,11,12,12,13,13,14,14],"right_children":[2,4,6,8,10,12,14,16,18,20,22,24,26,28,30,-1,-1,-1,-1,-1,-1,-1,-1,-1,-1,-1,-1,-1,-1,-1,-1],"split_conditions":[1.5E1,7E0,2.3E1,3E0,1.1E1,1.9E1,2.7E1,2E0,5E0,9E0,1.3E1,1.7E1,2.1E1,2.5E1,2.9E1,4.8488364E-1,4.3198147E-1,3.725487E-1,3.0417368E-1,2.40011E-1,1.7862035E-1,1.19173475E-1,6.1579086E-2,3.7331327E-3,-4.885005E-2,-1.0520351E-1,-1.5904458E-1,-2.1037017E-1,-2.583855E-1,-3.022372E-1,-3.4696788E-1],"split_indices":[1,1,1,1,1,1,1,1,1,1,1,1,1,1,1,0,0,0,0,0,0,0,0,0,0,0,0,0,0,0,0],"split_type":[0,0,0,0,0,0,0,0,0,0,0,0,0,0,0,0,0,0,0,0,0,0,0,0,0,0,0,0,0,0,0],"sum_hessian":[1.3317592E6,6.1025075E5,7.215085E5,2.5537561E5,3.5487512E5,3.6164725E5,3.5986122E5,8.380415E4,1.7157147E5,1.7583845E5,1.7903669E5,1.8052642E5,1.8112083E5,1.8046834E5,1.7939289E5,4.1548688E4,4.225546E4,8.52323E4,8.6339164E4,8.746323E4,8.837522E4,8.916706E4,8.986963E4,9.020679E4,9.0319625E4,9.0542336E4,9.057849E4,9.033539E4,9.0132945E4,8.977654E4,8.961636E4],"tree_param":{"num_deleted":"0","num_feature":"2","num_nodes":"31","size_leaf_vector":"0"}},{"base_weights":[4.0557593E-2,-4.6670035E-1,5.041641E-1,-8.557036E-1,-2.2688313E-1,2.7517316E-1,7.7903587E-1,-1.1608558E0,-7.253305E-1,-4.0809056E-1,-1.23017766E-1,1.511649E-1,4.0848824E-1,6.614418E-1,9.070239E-1,-3.7275818E-1,-3.241303E-1,-2.520971E-1,-1.8576582E-1,-1.4935683E-1,-1.0918552E-1,-6.66577E-2,-1.7237628E-2,2.6950743E-2,6.402243E-2,1.0390734E-1,1.4190954E-1,1.8147841E-1,2.1620499E-1,2.5595006E-1,2.8867686E-1],"categories":[],"categories_nodes":[],"categories_segments":[],"categories_sizes":[],"default_left":[0,0,0,0,0,0,0,0,0,0,0,0,0,0,0,0,0,0,0,0,0,0,0,0,0,0,0,0,0,0,0],"id":5,"left_children":[1,3,5,7,9,11,13,15,17,19,21,23,25,27,29,-1,-1,-1,-1,-1,-1,-1,-1,-1,-1,-1,-1,-1,-1,-1,-1],"loss_changes":[3.030898E5,5.7349766E4,4.2331047E4,9.230828E3,7.1378945E3,6.045086E3,4.5195156E3,3.3383594E2,1.928E3,5.0223828E2,1.5598223E3,7.111909E2,6.649512E2,4.6260938E2,3.3639062E2,0E0,0E0,0E0,0E0,0E0,0E0,0E0,0E0,0E0,0E0,0E0,0E0,0E0,0E0,0E0,0E0],"parents":[2147483647,0,0,1,1,2,2,3,3,4,4,5,5,6,6,7,7,8,8,9,9,10,10,11,11,12,12,13,13,14,14],"right_children":[2,4,6,8,10,12,14,16,18,20,22,24,26,28,30,-1,-1,-1,-1,-1,-1,-1,-1,-1,-1,-1,-1,-1,-1,-1,-1],"split_conditions":[1.5E1,7E0,2.3E1,3E0,1E1,1.9E1,2.7E1,2E0,5E0,8E0,1.2E1,1.7E1,2.1E1,2.5E1,2.9E1,-3.7275818E-1,-3.241303E-1,-2.520971E-1,-1.8576582E-1,-1.4935683E-1,-1.0918552E-1,-6.66577E-2,-1.7237628E-2,2.6950743E-2,6.402243E-2,1.0390734E-1,1.4190954E-1,1.8147841E-1,2.1620499E-1,2.5595006E-1,2.8867686E-1],"split_indices":[0,0,0,0,0,0,0,0,0,0,0,0,0,0,0,0,0,0,0,0,0,0,0,0,0,0,0,0,0,0,0],"split_type":[0,0,0,0,0,0,0,0,0,0,0,0,0,0,0,0,0,0,0,0,0,0,0,0,0,0,0,0,0,0,0],"sum_hessian":[1.2888118E6,6.153768E5,6.734349E5,2.3460344E5,3.807734E5,3.674864E5,3.0594847E5,7.010174E4,1.6450169E5,1.3854323E5,2.4223017E5,1.9059961E5,1.7688681E5,1.5967136E5,1.462771E5,3.4441242E4,3.56605E4,7.8699625E4,8.580206E4,4.526177E4,9.328146E4,9.6071695E4,1.4615848E5,9.644282E4,9.415679E4,9.055732E4,8.6329484E4,8.218845E4,7.7482914E4,7.456282E4,7.171428E4],"tree_param":{"num_deleted":"0","num_feature":"2","num_nodes":"31","size_leaf_vector":"0"}},{"base_weights":[3.0335866E-2,-3.8369992E-1,3.5572776E-1,-7.582241E-1,-2.1312848E-1,1.761931E-1,6.230525E-1,-1.0184873E0,-6.200185E-1,-3.2380012E-1,-1.11932166E-1,8.782803E-2,2.9924104E-1,5.1284313E-1,7.4957037E-1,-3.341534E-1,-2.783596E-1,-2.23121E-1,-1.6904405E-1,-1.16979435E-1,-7.8558885E-2,-4.7108993E-2,-2.0178303E-2,6.9331047E-3,3.959592E-2,7.51816E-2,1.0519093E-1,1.3853684E-1,1.7029852E-1,2.1507777E-1,2.55012E-1],"categories":[],"categories_nodes":[],"categories_segments":[],"categories_sizes":[],"default_left":[0,0,0,0,0,0,0,0,0,0,0,0,0,0,0,0,0,0,0,0,0,0,0,0,0,0,0,0,0,0,0],"id":6,"left_children":[1,3,5,7,9,11,13,15,17,19,21,23,25,27,29,-1,-1,-1,-1,-1,-1,-1,-1,-1,-1,-1,-1,-1,-1,-1,-1],"loss_changes":[1.6417352E5,3.420057E4,3.2708797E4,5.9425234E3,4.103498E3,4.419293E3,3.7527656E3,3.902578E2,6.961094E2,6.846074E2,3.7618237E2,6.7160254E2,3.9347363E2,3.547461E2,3.325625E2,0E0,0E0,0E0,0E0,0E0,0E0,0E0,0E0,0E0,0E0,0E0,0E0,0E0,0E0,0E0,0E0],"parents":[2147483647,0,0,1,1,2,2,3,3,4,4,5,5,6,6,7,7,8,8,9,9,10,10,11,11,12,12,13,13,14,14],"right_children":[2,4,6,8,10,12,14,16,18,20,22,24,26,28,30,-1,-1,-1,-1,-1,-1,-1,-1,-1,-1,-1,-1,-1,-1,-1,-1],"split_conditions":[1.4E1,6E0,2.3E1,3E0,1E1,1.9E1,2.7E1,2E0,4E0,8E0,1.2E1,1.6E1,2.1E1,2.5E1,3E1,-3.341534E-1,-2.783596E-1,-2.23121E-1,-1.6904405E-1,-1.16979435E-1,-7.8558885E-2,-4.7108993E-2,-2.0178303E-2,6.9331047E-3,3.959592E-2,7.51816E-2,1.0519093E-1,1.3853684E-1,1.7029852E-1,2.1507777E-1,2.55012E-1],"split_indices":[0,0,0,0,0,0,0,0,0,0,0,0,0,0,0,0,0,0,0,0,0,0,0,0,0,0,0,0,0,0,0],"split_type":[0,0,0,0,0,0,0,0,0,0,0,0,0,0,0,0,0,0,0,0,0,0,0,0,0,0,0,0,0,0,0],"sum_hessian":[1.218602E6,5.361838E5,6.824182E5,1.6768273E5,3.685011E5,4.0836478E5,2.7405338E5,5.8021953E4,1.0966078E5,1.7575456E5,1.9274653E5,2.3793534E5,1.7042945E5,1.4669716E5,1.27356234E5,2.7977203E4,3.0044752E4,3.4092766E4,7.5568016E4,8.4575516E4,9.117905E4,9.531259E4,9.743394E4,9.699923E4,1.4093612E5,8.8108086E4,8.232137E4,7.647121E4,7.022594E4,9.653475E4,3.0821482E4],"tree_param":{"num_deleted":"0","num_feature":"2","num_nodes":"31","size_leaf_vector":"0"}},{"base_weights":[2.235725E-2,7.737313E-1,-5.089804E-1,1.1625811E0,4.6860293E-1,-1.7652625E-1,-8.070434E-1,1.3690667E0,9.6703804E-1,6.5401953E-1,3.3398223E-1,-1.8514669E-2,-3.3262938E-1,-6.3541657E-1,-9.464264E-1,4.6680975E-1,3.8361374E-1,3.245791E-1,2.7299872E-1,2.2524397E-1,1.817669E-1,1.292044E-1,7.141543E-2,1.9850548E-2,-3.0993212E-2,-7.674271E-2,-1.2257348E-1,-1.6899332E-1,-2.1216647E-1,-2.6388037E-1,-3.1408924E-1],"categories":[],"categories_nodes":[],"categories_segments":[],"categories_sizes":[],"default_left":[0,0,0,0,0,0,0,0,0,0,0,0,0,0,0,0,0,0,0,0,0,0,0,0,0,0,0,0,0,0,0],"id":7,"left_children":[1,3,5,7,9,11,13,15,17,19,21,23,25,27,29,-1,-1,-1,-1,-1,-1,-1,-1,-1,-1,-1,-1,-1,-1,-1,-1],"loss_changes":[4.6328572E5,5.6947938E4,6.7298516E4,8.403656E3,6.6717734E3,7.9085635E3,8.485125E3,1.5789219E3,6.036719E2,4.5354297E2,1.4134199E3,1.1501733E3,9.062988E2,7.6333594E2,1.2223438E3,0E0,0E0,0E0,0E0,0E0,0E0,0E0,0E0,0E0,0E0,0E0,0E0,0E0,0E0,0E0,0E0],"parents":[2147483647,0,0,1,1,2,2,3,3,4,4,5,5,6,6,7,7,8,8,9,9,10,10,11,11,12,12,13,13,14,14],"right_children":[2,4,6,8,10,12,14,16,18,20,22,24,26,28,30,-1,-1,-1,-1,-1,-1,-1,-1,-1,-1,-1,-1,-1,-1,-1,-1],"split_conditions":[1.4E1,7E0,2.2E1,4E0,1E1,1.8E1,2.6E1,2E0,5E0,8E0,1.2E1,1.6E1,2E1,2.4E1,2.9E1,4.6680975E-1,3.8361374E-1,3.245791E-1,2.7299872E-1,2.2524397E-1,1.817669E-1,1.292044E-1,7.141543E-2,1.9850548E-2,-3.0993212E-2,-7.674271E-2,-1.2257348E-1,-1.6899332E-1,-2.1216647E-1,-2.6388037E-1,-3.1408924E-1],"split_indices":[1,1,1,1,1,1,1,1,1,1,1,1,1,1,1,0,0,0,0,0,0,0,0,0,0,0,0,0,0,0,0],"split_type":[0,0,0,0,0,0,0,0,0,0,0,0,0,0,0,0,0,0,0,0,0,0,0,0,0,0,0,0,0,0,0],"sum_hessian":[1.1604011E6,4.8071488E5,6.7968625E5,2.1128186E5,2.6943303E5,3.213929E5,3.5829334E5,1.026287E5,1.0865315E5,1.1316434E5,1.5626867E5,1.5989252E5,1.615004E5,1.607495E5,1.9754384E5,3.3238414E4,6.939029E4,3.5728355E4,7.29248E4,3.72057E4,7.595865E4,7.754086E4,7.872781E4,7.968097E4,8.021154E4,8.0644914E4,8.085549E4,8.058597E4,8.016354E4,1.18995664E5,7.854817E4],"tree_param":{"num_deleted":"0","num_feature":"2","num_nodes":"31","size_leaf_vector":"0"}},{"base_weights":[1.8713994E-2,-3.5922715E-1,3.1485334E-1,-7.8744817E-1,-2.3127086E-1,1.345697E-1,5.32673E-1,-9.809977E-1,-6.358871E-1,-3.711247E-1,-1.3333823E-1,5.3126995E-2,2.2315934E-1,4.3492836E-1,6.814212E-1,-3.255825E-1,-2.6552892E-1,-2.0941542E-1,-1.7315722E-1,-1.3196972E-1,-9.251241E-2,-5.330015E-2,-2.0537637E-2,4.7216425E-3,2.7230961E-2,5.417704E-2,8.039504E-2,1.09187156E-1,1.4618517E-1,1.8695688E-1,2.2298592E-1],"categories":[],"categories_nodes":[],"categories_segments":[],"categories_sizes":[],"default_left":[0,0,0,0,0,0,0,0,0,0,0,0,0,0,0,0,0,0,0,0,0,0,0,0,0,0,0,0,0,0,0],"id":8,"left_children":[1,3,5,7,9,11,13,15,17,19,21,23,25,27,29,-1,-1,-1,-1,-1,-1,-1,-1,-1,-1,-1,-1,-1,-1,-1,-1],"loss_changes":[1.2583595E5,2.700536E4,2.4721797E4,3.242289E3,5.1819688E3,2.4748965E3,4.0886094E3,3.897578E2,1.6367969E2,6.3450586E2,6.307173E2,2.477435E2,2.905293E2,5.9459375E2,3.326836E2,0E0,0E0,0E0,0E0,0E0,0E0,0E0,0E0,0E0,0E0,0E0,0E0,0E0,0E0,0E0,0E0],"parents":[2147483647,0,0,1,1,2,2,3,3,4,4,5,5,6,6,7,7,8,8,9,9,10,10,11,11,12,12,13,13,14,14],"right_children":[2,4,6,8,10,12,14,16,18,20,22,24,26,28,30,-1,-1,-1,-1,-1,-1,-1,-1,-1,-1,-1,-1,-1,-1,-1,-1],"split_conditions":[1.4E1,5E0,2.2E1,3E0,9E0,1.8E1,2.7E1,2E0,4E0,7E0,1.2E1,1.6E1,2E1,2.4E1,2.9E1,-3.255825E-1,-2.6552892E-1,-2.0941542E-1,-1.7315722E-1,-1.3196972E-1,-9.251241E-2,-5.330015E-2,-2.0537637E-2,4.7216425E-3,2.7230961E-2,5.417704E-2,8.039504E-2,1.09187156E-1,1.4618517E-1,1.8695688E-1,2.2298592E-1],"split_indices":[0,0,0,0,0,0,0,0,0,0,0,0,0,0,0,0,0,0,0,0,0,0,0,0,0,0,0,0,0,0,0],"split_type":[0,0,0,0,0,0,0,0,0,0,0,0,0,0,0,0,0,0,0,0,0,0,0,0,0,0,0,0,0,0,0],"sum_hessian":[1.1243255E6,4.9386234E5,6.304632E5,1.1352175E5,3.803406E5,3.450903E5,2.853729E5,4.969642E4,6.3825332E4,1.5641564E5,2.2392495E5,1.80116E5,1.6497431E5,1.7243184E5,1.12941055E5,2.3534467E4,2.6161955E4,3.0545598E4,3.3279734E4,7.421257E4,8.220307E4,1.3253589E5,9.138906E4,9.108401E4,8.903199E4,8.523561E4,7.97387E4,7.364281E4,9.878904E4,5.8633633E4,5.430742E4],"tree_param":{"num_deleted":"0","num_feature":"2","num_nodes":"31","size_leaf_vector":"0"}},{"base_weights":[1.3561304E-2,6.41295E-1,-4.129895E-1,1.0676556E0,4.1257656E-1,-1.7547658E-1,-6.874878E-1,1.3065197E0,9.215277E-1,5.728868E-1,2.6219997E-1,-4.9804855E-2,-3.3073506E-1,-5.7100344E-1,-8.0730116E-1,4.243478E-1,3.611998E-1,2.922854E-1,2.4583156E-1,1.9756053E-1,1.4705187E-1,1.0236017E-1,5.5312876E-2,1.3872295E-2,-3.4058668E-2,-8.040336E-2,-1.1786478E-1,-1.5427315E-1,-1.883298E-1,-2.3128247E-1,-2.7487123E-1],"categories":[],"categories_nodes":[],"categories_segments":[],"categories_sizes":[],"default_left":[0,0,0,0,0,0,0,0,0,0,0,0,0,0,0,0,0,0,0,0,0,0,0,0,0,0,0,0,0,0,0],"id":9,"left_children":[1,3,5,7,9,11,13,15,17,19,21,23,25,27,29,-1,-1,-1,-1,-1,-1,-1,-1,-1,-1,-1,-1,-1,-1,-1,-1],"loss_changes":[2.8839122E5,4.2416797E4,4.175818E4,5.186703E3,6.7944336E3,6.6889004E3,4.0749688E3,4.944922E2,4.1139844E2,9.093086E2,8.7270703E2,1.1679653E3,5.631113E2,4.2453516E2,4.879297E2,0E0,0E0,0E0,0E0,0E0,0E0,0E0,0E0,0E0,0E0,0E0,0E0,0E0,0E0,0E0,0E0],"parents":[2147483647,0,0,1,1,2,2,3,3,4,4,5,5,6,6,7,7,8,8,9,9,10,10,11,11,12,12,13,13,14,14],"right_children":[2,4,6,8,10,12,14,16,18,20,22,24,26,28,30,-1,-1,-1,-1,-1,-1,-1,-1,-1,-1,-1,-1,-1,-1,-1,-1],"split_conditions":[1.4E1,6E0,2.3E1,3E0,1E1,1.9E1,2.7E1,2E0,5E0,8E0,1.2E1,1.6E1,2.1E1,2.5E1,3E1,4.243478E-1,3.611998E-1,2.922854E-1,2.4583156E-1,1.9756053E-1,1.4705187E-1,1.0236017E-1,5.5312876E-2,1.3872295E-2,-3.4058668E-2,-8.040336E-2,-1.1786478E-1,-1.5427315E-1,-1.883298E-1,-2.3128247E-1,-2.7487123E-1],"split_indices":[1,1,1,1,1,1,1,1,1,1,1,1,1,1,1,0,0,0,0,0,0,0,0,0,0,0,0,0,0,0,0],"split_type":[0,0,0,0,0,0,0,0,0,0,0,0,0,0,0,0,0,0,0,0,0,0,0,0,0,0,0,0,0,0,0],"sum_hessian":[1.077002E6,4.357931E5,6.4120894E5,1.5207203E5,2.8372106E5,3.4386972E5,2.9733922E5,5.7577703E4,9.449433E4,1.3714981E5,1.4657125E5,1.9023538E5,1.5363434E5,1.5099512E5,1.4634411E5,2.77812E4,2.9796504E4,6.1945953E4,3.2548371E4,6.705604E4,7.009377E4,7.23899E4,7.418135E4,7.553727E4,1.1469811E5,7.6897375E4,7.673697E4,7.597954E4,7.501558E4,1.1009907E5,3.624503E4],"tree_param":{"num_deleted":"0","num_feature":"2","num_nodes":"31","size_leaf_vector":"0"}},{"base_weights":[1.1783156E-2,-3.7361935E-1,2.645295E-1,-7.515908E-1,-2.506141E-1,1.0766711E-1,4.8371962E-1,-9.481805E-1,-6.049208E-1,-3.9263058E-1,-1.7684431E-1,1.4571593E-2,1.8803309E-1,3.7156746E-1,5.958166E-1,-3.179796E-1,-2.5464177E-1,-1.9895828E-1,-1.6510412E-1,-1.4141116E-1,-1.06760316E-1,-7.443044E-2,-3.945044E-2,-5.1525068E-3,1.4187486E-2,4.514116E-2,7.4483156E-2,9.9983126E-2,1.2389581E-1,1.6366848E-1,2.04071E-1],"categories":[],"categories_nodes":[],"categories_segments":[],"categories_sizes":[],"default_left":[0,0,0,0,0,0,0,0,0,0,0,0,0,0,0,0,0,0,0,0,0,0,0,0,0,0,0,0,0,0,0],"id":10,"left_children":[1,3,5,7,9,11,13,15,17,19,21,23,25,27,29,-1,-1,-1,-1,-1,-1,-1,-1,-1,-1,-1,-1,-1,-1,-1,-1],"loss_changes":[1.0184634E5,1.9195594E4,2.168311E4,2.8437695E3,3.2430156E3,2.7443384E3,3.257789E3,3.7626562E2,1.1962109E2,2.6369922E2,6.447798E2,1.791846E2,4.249912E2,1.6870703E2,4.91125E2,0E0,0E0,0E0,0E0,0E0,0E0,0E0,0E0,0E0,0E0,0E0,0E0,0E0,0E0,0E0,0E0],"parents":[2147483647,0,0,1,1,2,2,3,3,4,4,5,5,6,6,7,7,8,8,9,9,10,10,11,11,12,12,13,13,14,14],"right_children":[2,4,6,8,10,12,14,16,18,20,22,24,26,28,30,-1,-1,-1,-1,-1,-1,-1,-1,-1,-1,-1,-1,-1,-1,-1,-1],"split_conditions":[1.3E1,5E0,2.2E1,3E0,8E0,1.7E1,2.6E1,2E0,4E0,6E0,1E1,1.5E1,2E1,2.4E1,2.9E1,-3.179796E-1,-2.5464177E-1,-1.9895828E-1,-1.6510412E-1,-1.4141116E-1,-1.06760316E-1,-7.443044E-2,-3.945044E-2,-5.1525068E-3,1.4187486E-2,4.514116E-2,7.4483156E-2,9.9983126E-2,1.2389581E-1,1.6366848E-1,2.04071E-1],"split_indices":[0,0,0,0,0,0,0,0,0,0,0,0,0,0,0,0,0,0,0,0,0,0,0,0,0,0,0,0,0,0,0],"split_type":[0,0,0,0,0,0,0,0,0,0,0,0,0,0,0,0,0,0,0,0,0,0,0,0,0,0,0,0,0,0,0],"sum_hessian":[1.0456116E6,4.1404197E5,6.315696E5,1.0155122E5,3.1249075E5,3.68268E5,2.6330162E5,4.3232047E4,5.8319176E4,1.0657816E5,2.0591258E5,1.7093303E5,1.9733497E5,1.3186108E5,1.3144056E5,2.0089117E4,2.3142928E4,2.772042E4,3.0598756E4,3.34515E4,7.3126664E4,7.960966E4,1.2630293E5,8.591958E4,8.501345E4,1.2210261E5,7.523235E4,6.919951E4,6.266157E4,8.279756E4,4.8643E4],"tree_param":{"num_deleted":"0","num_feature":"2","num_nodes":"31","size_leaf_vector":"0"}},{"base_weights":[8.30952E-3,-2.780829E-1,1.94359E-1,-6.132604E-1,-1.7994058E-1,8.894616E-2,3.943013E-1,-8.231999E-1,-4.7037566E-1,-2.8847077E-1,-1.2520714E-1,2.1868633E-2,1.6456917E-1,3.133611E-1,4.981475E-1,-2.8612942E-1,-2.1404067E-1,-1.5727691E-1,-1.2629229E-1,-1.0568558E-1,-7.7740915E-2,-4.8215944E-2,-2.2338897E-2,-3.678408E-4,1.740927E-2,4.130815E-2,6.261141E-2,8.297608E-2,1.0622624E-1,1.3993938E-1,1.803282E-1],"categories":[],"categories_nodes":[],"categories_segments":[],"categories_sizes":[],"default_left":[0,0,0,0,0,0,0,0,0,0,0,0,0,0,0,0,0,0,0,0,0,0,0,0,0,0,0,0,0,0,0],"id":11,"left_children":[1,3,5,7,9,11,13,15,17,19,21,23,25,27,29,-1,-1,-1,-1,-1,-1,-1,-1,-1,-1,-1,-1,-1,-1,-1,-1],"loss_changes":[5.3623137E4,1.2991283E4,1.2835373E4,2.6181055E3,1.7990137E3,2.0176921E3,1.7252188E3,4.2714258E2,9.111914E1,1.5870801E2,3.5519482E2,1.8030716E2,2.0370508E2,1.4345605E2,2.4186133E2,0E0,0E0,0E0,0E0,0E0,0E0,0E0,0E0,0E0,0E0,0E0,0E0,0E0,0E0,0E0,0E0],"parents":[2147483647,0,0,1,1,2,2,3,3,4,4,5,5,6,6,7,7,8,8,9,9,10,10,11,11,12,12,13,13,14,14],"right_children":[2,4,6,8,10,12,14,16,18,20,22,24,26,28,30,-1,-1,-1,-1,-1,-1,-1,-1,-1,-1,-1,-1,-1,-1,-1,-1],"split_conditions":[1.3E1,5E0,2.3E1,3E0,8E0,1.8E1,2.7E1,2E0,4E0,6E0,1.1E1,1.6E1,2.1E1,2.5E1,3E1,-2.8612942E-1,-2.1404067E-1,-1.5727691E-1,-1.2629229E-1,-1.0568558E-1,-7.7740915E-2,-4.8215944E-2,-2.2338897E-2,-3.678408E-4,1.740927E-2,4.130815E-2,6.261141E-2,8.297608E-2,1.0622624E-1,1.3993938E-1,1.803282E-1],"split_indices":[0,0,0,0,0,0,0,0,0,0,0,0,0,0,0,0,0,0,0,0,0,0,0,0,0,0,0,0,0,0,0],"split_type":[0,0,0,0,0,0,0,0,0,0,0,0,0,0,0,0,0,0,0,0,0,0,0,0,0,0,0,0,0,0,0],"sum_hessian":[1.0064637E6,3.962349E5,6.102288E5,8.961734E4,3.0661756E5,3.99747E5,2.104818E5,3.613799E4,5.3479355E4,1.0246023E5,2.0415733E5,2.1222173E5,1.8752527E5,1.18580664E5,9.190113E4,1.6274644E4,1.9863346E4,2.5053158E4,2.8426197E4,3.1683994E4,7.0776234E4,1.1947689E5,8.468044E4,1.2859991E5,8.3621836E4,1.17315586E5,7.020969E4,6.301421E4,5.556645E4,7.0678414E4,2.1222715E4],"tree_param":{"num_deleted":"0","num_feature":"2","num_nodes":"31","size_leaf_vector":"0"}},{"base_weights":[5.725229E-3,-1.8683909E-1,1.5448579E-1,-5.796153E-1,-1.3023086E-1,8.307383E-2,3.202107E-1,-2.5663793E-1,-4.8758772E-1,-2.3313802E-1,-7.724099E-2,3.3919208E-2,1.4124358E-1,2.6207942E-1,4.202676E-1,-1.7725942E-1,-1.2226945E-1,-8.6346045E-2,-5.6136414E-2,-3.9138198E-2,-1.5720883E-2,4.899103E-3,1.8248867E-2,3.5845403E-2,5.3336367E-2,6.828001E-2,9.033539E-2,1.16832815E-1,1.4568637E-1],"categories":[],"categories_nodes":[],"categories_segments":[],"categories_sizes":[],"default_left":[0,0,0,0,0,0,0,0,0,0,0,0,0,0,0,0,0,0,0,0,0,0,0,0,0,0,0,0,0],"id":12,"left_children":[1,3,5,7,9,11,13,-1,15,17,19,21,23,25,27,-1,-1,-1,-1,-1,-1,-1,-1,-1,-1,-1,-1,-1,-1],"loss_changes":[2.7961402E4,9.417562E3,6.4976914E3,1.2840137E3,2.0108506E3,1.0919836E3,9.2663477E2,0E0,2.7835156E2,2.9146094E2,3.1502832E2,9.4894135E1,1.23818115E2,1.1289697E2,7.45332E1,0E0,0E0,0E0,0E0,0E0,0E0,0E0,0E0,0E0,0E0,0E0,0E0,0E0,0E0],"parents":[2147483647,0,0,1,1,2,2,3,3,4,4,5,5,6,6,8,8,9,9,10,10,11,11,12,12,13,13,14,14],"right_children":[2,4,6,8,10,12,14,-1,16,18,20,22,24,26,28,-1,-1,-1,-1,-1,-1,-1,-1,-1,-1,-1,-1,-1,-1],"split_conditions":[1.4E1,4E0,2.4E1,2E0,8E0,1.9E1,2.8E1,-2.5663793E-1,3E0,6E0,1E1,1.7E1,2.2E1,2.6E1,3E1,-1.7725942E-1,-1.2226945E-1,-8.6346045E-2,-5.6136414E-2,-3.9138198E-2,-1.5720883E-2,4.899103E-3,1.8248867E-2,3.5845403E-2,5.3336367E-2,6.828001E-2,9.033539E-2,1.16832815E-1,1.4568637E-1],"split_indices":[0,0,0,0,0,0,0,0,0,0,0,0,0,0,0,0,0,0,0,0,0,0,0,0,0,0,0,0,0],"split_type":[0,0,0,0,0,0,0,0,0,0,0,0,0,0,0,0,0,0,0,0,0,0,0,0,0,0,0,0,0],"sum_hessian":[9.7616144E5,4.2528484E5,5.508766E5,5.345128E4,3.7183356E5,3.8521297E5,1.6566367E5,1.322289E4,4.022839E4,1.26039945E5,2.457936E5,2.0928908E5,1.7592388E5,1.05128625E5,6.0535047E4,1.7265426E4,2.2962967E4,5.7058562E4,6.898138E4,7.751881E4,1.6827478E5,1.2777933E5,8.150976E4,1.1119714E5,6.4726734E4,5.656171E4,4.8566914E4,4.169932E4,1.8835725E4],"tree_param":{"num_deleted":"0","num_feature":"2","num_nodes":"29","size_leaf_vector":"0"}},{"base_weights":[3.9091413E-3,6.313825E-1,-4.081752E-1,1.0792586E0,4.0043756E-1,-1.5118083E-1,-6.41141E-1,1.3401531E0,9.2445606E-1,6.142811E-1,2.8186104E-1,-2.4710555E-2,-2.750775E-1,-5.315388E-1,-7.8293324E-1,4.398251E-1,3.6679846E-1,3.157695E-1,2.589476E-1,2.1194604E-1,1.7074698E-1,1.0707349E-1,5.1898614E-2,1.0861525E-2,-2.5665196E-2,-6.553926E-2,-9.920614E-2,-1.4282459E-1,-1.8455559E-1,-2.2504129E-1,-2.6441666E-1],"categories":[],"categories_nodes":[],"categories_segments":[],"categories_sizes":[],"default_left":[0,0,0,0,0,0,0,0,0,0,0,0,0,0,0,0,0,0,0,0,0,0,0,0,0,0,0,0,0,0,0],"id":13,"left_children":[1,3,5,7,9,11,13,15,17,19,21,23,25,27,29,-1,-1,-1,-1,-1,-1,-1,-1,-1,-1,-1,-1,-1,-1,-1,-1],"loss_changes":[2.4649992E5,3.9010797E4,3.4403008E4,5.0662656E3,6.276301E3,4.272032E3,4.6167656E3,5.593047E2,5.3009375E2,3.0028906E2,1.2836904E3,5.0538617E2,4.048252E2,7.3109375E2,3.3528906E2,0E0,0E0,0E0,0E0,0E0,0E0,0E0,0E0,0E0,0E0,0E0,0E0,0E0,0E0,0E0,0E0],"parents":[2147483647,0,0,1,1,2,2,3,3,4,4,5,5,6,6,7,7,8,8,9,9,10,10,11,11,12,12,13,13,14,14],"right_children":[2,4,6,8,10,12,14,16,18,20,22,24,26,28,30,-1,-1,-1,-1,-1,-1,-1,-1,-1,-1,-1,-1,-1,-1,-1,-1],"split_conditions":[1.4E1,6E0,2.2E1,3E0,9E0,1.8E1,2.7E1,2E0,4E0,7E0,1.2E1,1.6E1,2E1,2.5E1,3E1,4.398251E-1,3.6679846E-1,3.157695E-1,2.589476E-1,2.1194604E-1,1.7074698E-1,1.0707349E-1,5.1898614E-2,1.0861525E-2,-2.5665196E-2,-6.553926E-2,-9.920614E-2,-1.4282459E-1,-1.8455559E-1,-2.2504129E-1,-2.6441666E-1],"split_indices":[1,1,1,1,1,1,1,1,1,1,1,1,1,1,1,0,0,0,0,0,0,0,0,0,0,0,0,0,0,0,0],"split_type":[0,0,0,0,0,0,0,0,0,0,0,0,0,0,0,0,0,0,0,0,0,0,0,0,0,0,0,0,0,0,0],"sum_hessian":[9.5326425E5,3.7792906E5,5.753352E5,1.2849643E5,2.4943264E5,2.736707E5,3.0166447E5,4.7718766E4,8.0777664E4,8.881059E4,1.6062205E5,1.3564495E5,1.3802573E5,1.7036281E5,1.3130167E5,2.2805615E4,2.4913152E4,2.585237E4,5.4925297E4,2.8784398E4,6.002619E4,9.4782336E4,6.583971E4,6.733706E4,6.830789E4,6.887898E4,6.914676E4,1.0283534E5,6.752747E4,9.8910445E4,3.2391225E4],"tree_param":{"num_deleted":"0","num_feature":"2","num_nodes":"31","size_leaf_vector":"0"}},{"base_weights":[4.7758883E-3,5.0878465E-1,-2.6922175E-1,9.269001E-1,3.498546E-1,-1.0294585E-1,-4.8676002E-1,1.110856E0,7.6860875E-1,4.8743907E-1,2.2718407E-1,3.0196877E-2,-1.8988848E-1,-4.1978E-1,-6.044422E-1,3.7466952E-1,2.9626927E-1,2.4800399E-1,2.1358131E-1,1.6919164E-1,1.2471964E-1,8.782618E-2,4.9062748E-2,2.2719875E-2,-4.0672766E-3,-4.469986E-2,-8.130728E-2,-1.15446724E-1,-1.419644E-1,-1.7380604E-1,-1.9624752E-1],"categories":[],"categories_nodes":[],"categories_segments":[],"categories_sizes":[],"default_left":[0,0,0,0,0,0,0,0,0,0,0,0,0,0,0,0,0,0,0,0,0,0,0,0,0,0,0,0,0,0,0],"id":14,"left_children":[1,3,5,7,9,11,13,15,17,19,21,23,25,27,29,-1,-1,-1,-1,-1,-1,-1,-1,-1,-1,-1,-1,-1,-1,-1,-1],"loss_changes":[1.2822462E5,2.1662828E4,2.1720777E4,2.517836E3,3.9623105E3,3.9558633E3,1.9969414E3,5.8372266E2,7.609375E1,5.5896094E2,4.991582E2,2.712583E2,6.624619E2,2.6402734E2,5.05E1,0E0,0E0,0E0,0E0,0E0,0E0,0E0,0E0,0E0,0E0,0E0,0E0,0E0,0E0,0E0,0E0],"parents":[2147483647,0,0,1,1,2,2,3,3,4,4,5,5,6,6,7,7,8,8,9,9,10,10,11,11,12,12,13,13,14,14],"right_children":[2,4,6,8,10,12,14,16,18,20,22,24,26,28,30,-1,-1,-1,-1,-1,-1,-1,-1,-1,-1,-1,-1,-1,-1,-1,-1],"split_conditions":[1.3E1,5E0,2.3E1,3E0,9E0,1.7E1,2.8E1,2E0,4E0,7E0,1.1E1,1.5E1,2.1E1,2.6E1,3E1,3.7466952E-1,2.9626927E-1,2.4800399E-1,2.1358131E-1,1.6919164E-1,1.2471964E-1,8.782618E-2,4.9062748E-2,2.2719875E-2,-4.0672766E-3,-4.469986E-2,-8.130728E-2,-1.15446724E-1,-1.419644E-1,-1.7380604E-1,-1.9624752E-1],"split_indices":[1,1,1,1,1,1,1,1,1,1,1,1,1,1,1,0,0,0,0,0,0,0,0,0,0,0,0,0,0,0,0],"split_type":[0,0,0,0,0,0,0,0,0,0,0,0,0,0,0,0,0,0,0,0,0,0,0,0,0,0,0,0,0,0,0],"sum_hessian":[9.2841444E5,3.2703738E5,6.0137706E5,8.997801E4,2.3705936E5,3.4099003E5,2.6038703E5,4.1455152E4,4.852286E4,1.1152859E5,1.2553076E5,1.3445973E5,2.0653031E5,1.6623525E5,9.415179E4,1.93473E4,2.210785E4,2.3488947E4,2.5033912E4,5.3581688E4,5.7946906E4,6.140927E4,6.4121492E4,6.6492914E4,6.796681E4,1.3776878E5,6.876152E4,1.01107375E5,6.5127875E4,6.330353E4,3.0848254E4],"tree_param":{"num_deleted":"0","num_feature":"2","num_nodes":"31","size_leaf_vector":"0"}},{"base_weights":[4.7297003E-3,4.1025376E-1,-1.7662999E-1,7.3604655E-1,2.7735698E-1,-2.7333155E-2,-3.173037E-1,3.1933E-1,6.5197897E-1,3.8850433E-1,2.0437633E-1,3.6002412E-2,-1.0422214E-1,-2.3991963E-1,-4.014858E-1,2.3704718E-1,1.7699891E-1,1.3763417E-1,1.0645932E-1,7.5601816E-2,4.7584344E-2,2.6025934E-2,8.597015E-4,-1.9125953E-2,-4.3127686E-2,-6.1394293E-2,-8.805672E-2,-1.0215827E-1,-1.3312313E-1],"categories":[],"categories_nodes":[],"categories_segments":[],"categories_sizes":[],"default_left":[0,0,0,0,0,0,0,0,0,0,0,0,0,0,0,0,0,0,0,0,0,0,0,0,0,0,0,0,0],"id":15,"left_children":[1,3,5,7,9,11,13,-1,15,17,19,21,23,25,27,-1,-1,-1,-1,-1,-1,-1,-1,-1,-1,-1,-1,-1,-1],"loss_changes":[6.675592E4,1.2091215E4,1.3149229E4,2.1472852E3,1.5851406E3,1.4858271E3,2.0669688E3,0E0,4.7964062E2,1.4204297E2,2.4075098E2,2.7516656E2,2.093534E2,2.9150488E2,3.5470703E2,0E0,0E0,0E0,0E0,0E0,0E0,0E0,0E0,0E0,0E0,0E0,0E0,0E0,0E0],"parents":[2147483647,0,0,1,1,2,2,3,3,4,4,5,5,6,6,8,8,9,9,10,10,11,11,12,12,13,13,14,14],"right_children":[2,4,6,8,10,12,14,-1,16,18,20,22,24,26,28,-1,-1,-1,-1,-1,-1,-1,-1,-1,-1,-1,-1,-1,-1],"split_conditions":[1.2E1,5E0,2.1E1,2E0,8E0,1.7E1,2.6E1,3.1933E-1,3E0,6E0,1E1,1.4E1,1.9E1,2.4E1,2.8E1,2.3704718E-1,1.7699891E-1,1.3763417E-1,1.0645932E-1,7.5601816E-2,4.7584344E-2,2.6025934E-2,8.597015E-4,-1.9125953E-2,-4.3127686E-2,-6.1394293E-2,-8.805672E-2,-1.0215827E-1,-1.3312313E-1],"split_indices":[1,1,1,1,1,1,1,0,1,1,1,1,1,1,1,0,0,0,0,0,0,0,0,0,0,0,0,0,0],"split_type":[0,0,0,0,0,0,0,0,0,0,0,0,0,0,0,0,0,0,0,0,0,0,0,0,0,0,0,0,0],"sum_hessian":[9.075061E5,2.8053056E5,6.2697556E5,8.115965E4,1.9937092E5,3.0435203E5,3.2262353E5,1.6409201E4,6.475045E4,7.872755E4,1.2064337E5,1.6649975E5,1.3785227E5,1.6843505E5,1.5418847E5,1.977795E4,4.4972496E4,2.4962635E4,5.3764914E4,5.8535098E4,6.2108273E4,6.512552E4,1.0137423E5,6.879914E4,6.9053125E4,1.0219783E5,6.623722E4,6.3652977E4,9.053549E4],"tree_param":{"num_deleted":"0","num_feature":"2","num_nodes":"29","size_leaf_vector":"0"}},{"base_weights":[4.2577432E-3,3.3150572E-1,-1.1511623E-1,6.5348583E-1,2.41154E-1,-9.116316E-3,-2.2700894E-1,2.7057132E-1,5.6078887E-1,3.352912E-1,1.82153E-1,4.7668744E-2,-6.335185E-2,-1.7966327E-1,-3.0607972E-1,1.8695165E-1,1.5080559E-1,1.0946727E-1,8.388571E-2,6.484922E-2,4.4953037E-2,2.0922923E-2,4.585707E-3,-1.1341455E-2,-3.0208241E-2,-4.3205615E-2,-6.4937934E-2,-8.056703E-2,-1.034191E-1],"categories":[],"categories_nodes":[],"categories_segments":[],"categories_sizes":[],"default_left":[0,0,0,0,0,0,0,0,0,0,0,0,0,0,0,0,0,0,0,0,0,0,0,0,0,0,0,0,0],"id":16,"left_children":[1,3,5,7,9,11,13,-1,15,17,19,21,23,25,27,-1,-1,-1,-1,-1,-1,-1,-1,-1,-1,-1,-1,-1,-1],"loss_changes":[3.4810207E4,6.881496E3,7.7271953E3,1.1195469E3,1.0058994E3,1.0336826E3,1.1612686E3,0E0,7.69541E1,8.2708984E1,1.0634009E2,1.12171234E2,1.5661987E2,2.4130566E2,1.3848047E2,0E0,0E0,0E0,0E0,0E0,0E0,0E0,0E0,0E0,0E0,0E0,0E0,0E0,0E0],"parents":[2147483647,0,0,1,1,2,2,3,3,4,4,5,5,6,6,8,8,9,9,10,10,11,11,12,12,13,13,14,14],"right_children":[2,4,6,8,10,12,14,-1,16,18,20,22,24,26,28,-1,-1,-1,-1,-1,-1,-1,-1,-1,-1,-1,-1,-1,-1],"split_conditions":[1.1E1,4E0,2.1E1,2E0,7E0,1.6E1,2.7E1,2.7057132E-1,3E0,6E0,9E0,1.4E1,1.9E1,2.4E1,2.9E1,1.8695165E-1,1.5080559E-1,1.0946727E-1,8.388571E-2,6.484922E-2,4.4953037E-2,2.0922923E-2,4.585707E-3,-1.1341455E-2,-3.0208241E-2,-4.3205615E-2,-6.4937934E-2,-8.056703E-2,-1.034191E-1],"split_indices":[1,1,1,1,1,1,1,0,1,1,1,1,1,1,1,0,0,0,0,0,0,0,0,0,0,0,0,0,0],"split_type":[0,0,0,0,0,0,0,0,0,0,0,0,0,0,0,0,0,0,0,0,0,0,0,0,0,0,0,0,0],"sum_hessian":[8.90786E5,2.3821148E5,6.525745E5,5.2065664E4,1.8614583E5,3.3535984E5,3.1721466E5,1.3988303E4,3.807736E4,7.136396E4,1.1478187E5,1.6334289E5,1.7201694E5,1.9883989E5,1.18374766E5,1.7910191E4,2.016717E4,4.5955633E4,2.540833E4,5.5101875E4,5.967999E4,9.613956E4,6.720333E4,1.0299961E5,6.9017336E4,1.017485E5,9.70914E4,6.077598E4,5.759878E4],"tree_param":{"num_deleted":"0","num_feature":"2","num_nodes":"29","size_leaf_vector":"0"}},{"base_weights":[3.6097213E-3,2.437587E-1,-8.1488624E-2,5.127904E-1,1.7343758E-1,-2.0067764E-2,-1.8235035E-1,2.26658E-1,4.2875165E-1,2.4457753E-1,1.2962918E-1,1.900894E-2,-7.313589E-2,-1.5369403E-1,-2.3542464E-1,1.4494945E-1,1.1361237E-1,8.872648E-2,6.624229E-2,4.630273E-2,3.1818125E-2,1.2904545E-2,-3.2322651E-3,-1.6783161E-2,-2.5256315E-2,-3.8922552E-2,-5.100297E-2,-6.489714E-2,-8.206628E-2],"categories":[],"categories_nodes":[],"categories_segments":[],"categories_sizes":[],"default_left":[0,0,0,0,0,0,0,0,0,0,0,0,0,0,0,0,0,0,0,0,0,0,0,0,0,0,0,0,0],"id":17,"left_children":[1,3,5,7,9,11,13,-1,15,17,19,21,23,25,27,-1,-1,-1,-1,-1,-1,-1,-1,-1,-1,-1,-1,-1,-1],"loss_changes":[1.7949115E4,4.311369E3,4.0035273E3,9.041387E2,5.48167E2,8.3881726E2,3.514712E2,0E0,4.9776855E1,5.6032715E1,5.1943726E1,1.6730307E2,2.5019531E1,4.621118E1,3.5557617E1,0E0,0E0,0E0,0E0,0E0,0E0,0E0,0E0,0E0,0E0,0E0,0E0,0E0,0E0],"parents":[2147483647,0,0,1,1,2,2,3,3,4,4,5,5,6,6,8,8,9,9,10,10,11,11,12,12,13,13,14,14],"right_children":[2,4,6,8,10,12,14,-1,16,18,20,22,24,26,28,-1,-1,-1,-1,-1,-1,-1,-1,-1,-1,-1,-1,-1,-1],"split_conditions":[1.1E1,4E0,2.3E1,2E0,7E0,1.8E1,2.8E1,2.26658E-1,3E0,5E0,9E0,1.5E1,2E1,2.5E1,3E1,1.4494945E-1,1.1361237E-1,8.872648E-2,6.624229E-2,4.630273E-2,3.1818125E-2,1.2904545E-2,-3.2322651E-3,-1.6783161E-2,-2.5256315E-2,-3.8922552E-2,-5.100297E-2,-6.489714E-2,-8.206628E-2],"split_indices":[1,1,1,1,1,1,1,0,1,1,1,1,1,1,1,0,0,0,0,0,0,0,0,0,0,0,0,0,0],"split_type":[0,0,0,0,0,0,0,0,0,0,0,0,0,0,0,0,0,0,0,0,0,0,0,0,0,0,0,0,0],"sum_hessian":[8.778662E5,2.2985223E5,6.4801394E5,4.747001E4,1.8238223E5,4.0308644E5,2.449275E5,1.2041129E4,3.5428887E4,6.903709E4,1.1334513E5,2.3156017E5,1.7152628E5,1.597141E5,8.521342E4,1.6452898E4,1.8975986E4,2.1171791E4,4.7865305E4,5.4208418E4,5.9136715E4,1.292185E5,1.02341664E5,6.903228E4,1.0249401E5,6.605732E4,9.3656766E4,5.77206E4,2.7492818E4],"tree_param":{"num_deleted":"0","num_feature":"2","num_nodes":"29","size_leaf_vector":"0"}},{"base_weights":[2.8981979E-3,-4.6037468E-1,2.9015726E-1,-7.38469E-1,-2.666983E-1,1.030069E-1,4.4509563E-1,-1.0331886E0,-6.4393634E-1,-3.6825702E-1,-1.7217234E-1,5.7821735E-3,1.7662336E-1,3.733479E-1,5.598553E-1,-3.4040242E-1,-2.8462034E-1,-2.2253576E-1,-1.6799182E-1,-1.21399656E-1,-8.921732E-2,-6.1641514E-2,-3.171701E-2,-6.2793707E-3,1.815624E-2,3.9394602E-2,6.668858E-2,9.7910166E-2,1.2771915E-1,1.5217817E-1,1.7999262E-1],"categories":[],"categories_nodes":[],"categories_segments":[],"categories_sizes":[],"default_left":[0,0,0,0,0,0,0,0,0,0,0,0,0,0,0,0,0,0,0,0,0,0,0,0,0,0,0,0,0,0,0],"id":18,"left_children":[1,3,5,7,9,11,13,15,17,19,21,23,25,27,29,-1,-1,-1,-1,-1,-1,-1,-1,-1,-1,-1,-1,-1,-1,-1,-1],"loss_changes":[1.1551793E5,1.783729E4,1.5510293E4,3.7051016E3,1.8516816E3,1.7285728E3,2.3621875E3,1.6898828E2,7.7810156E2,2.0496875E2,2.0833252E2,1.5564403E2,2.6625635E2,4.037129E2,1.7719922E2,0E0,0E0,0E0,0E0,0E0,0E0,0E0,0E0,0E0,0E0,0E0,0E0,0E0,0E0,0E0,0E0],"parents":[2147483647,0,0,1,1,2,2,3,3,4,4,5,5,6,6,7,7,8,8,9,9,10,10,11,11,12,12,13,13,14,14],"right_children":[2,4,6,8,10,12,14,16,18,20,22,24,26,28,30,-1,-1,-1,-1,-1,-1,-1,-1,-1,-1,-1,-1,-1,-1,-1,-1],"split_conditions":[1.3E1,7E0,2E1,3E0,1E1,1.6E1,2.6E1,2E0,5E0,9E0,1.2E1,1.5E1,1.8E1,2.3E1,2.8E1,-3.4040242E-1,-2.8462034E-1,-2.2253576E-1,-1.6799182E-1,-1.21399656E-1,-8.921732E-2,-6.1641514E-2,-3.171701E-2,-6.2793707E-3,1.815624E-2,3.9394602E-2,6.668858E-2,9.7910166E-2,1.2771915E-1,1.5217817E-1,1.7999262E-1],"split_indices":[0,0,0,0,0,0,0,0,0,0,0,0,0,0,0,0,0,0,0,0,0,0,0,0,0,0,0,0,0,0,0],"split_type":[0,0,0,0,0,0,0,0,0,0,0,0,0,0,0,0,0,0,0,0,0,0,0,0,0,0,0,0,0,0,0],"sum_hessian":[8.6810544E5,3.3218706E5,5.359184E5,1.3625753E5,1.9592955E5,2.4288597E5,2.9303244E5,3.2950305E4,1.0330723E5,9.417458E4,1.0175496E5,1.0497746E5,1.379085E5,1.8059725E5,1.1243518E5,1.4670748E4,1.8279559E4,4.7408457E4,5.589877E4,6.1706055E4,3.2468523E4,6.724315E4,3.4511816E4,6.988593E4,3.509153E4,6.9825266E4,6.808324E4,9.575446E4,8.484279E4,4.9241156E4,6.319402E4],"tree_param":{"num_deleted":"0","num_feature":"2","num_nodes":"31","size_leaf_vector":"0"}},{"base_weights":[1.5778424E-3,-3.7275168E-1,1.9346708E-1,-6.282818E-1,-2.3875518E-1,5.400642E-2,3.3174467E-1,-8.751774E-1,-5.277354E-1,-3.184893E-1,-1.67209E-1,-1.5014044E-2,1.244974E-1,2.580589E-1,4.1670245E-1,-2.9893577E-1,-2.3391719E-1,-1.8791859E-1,-1.4552262E-1,-1.04226924E-1,-7.892878E-2,-5.8827356E-2,-3.2985985E-2,-1.6868176E-2,7.484255E-3,2.7643012E-2,4.7120742E-2,6.502705E-2,8.642732E-2,1.15390204E-1,1.486499E-1],"categories":[],"categories_nodes":[],"categories_segments":[],"categories_sizes":[],"default_left":[0,0,0,0,0,0,0,0,0,0,0,0,0,0,0,0,0,0,0,0,0,0,0,0,0,0,0,0,0,0,0],"id":19,"left_children":[1,3,5,7,9,11,13,15,17,19,21,23,25,27,29,-1,-1,-1,-1,-1,-1,-1,-1,-1,-1,-1,-1,-1,-1,-1,-1],"loss_changes":[6.030755E4,9.6938125E3,1.068657E4,2.3497617E3,1.0391416E3,1.3518226E3,1.7076055E3,2.2897266E2,2.326543E2,1.07944336E2,1.4682764E2,2.312549E2,1.3116333E2,1.5817871E2,2.7843945E2,0E0,0E0,0E0,0E0,0E0,0E0,0E0,0E0,0E0,0E0,0E0,0E0,0E0,0E0,0E0,0E0],"parents":[2147483647,0,0,1,1,2,2,3,3,4,4,5,5,6,6,7,7,8,8,9,9,10,10,11,11,12,12,13,13,14,14],"right_children":[2,4,6,8,10,12,14,16,18,20,22,24,26,28,30,-1,-1,-1,-1,-1,-1,-1,-1,-1,-1,-1,-1,-1,-1,-1,-1],"split_conditions":[1.2E1,6E0,2E1,3E0,9E0,1.6E1,2.5E1,2E0,4E0,8E0,1.1E1,1.4E1,1.8E1,2.2E1,2.9E1,-2.9893577E-1,-2.3391719E-1,-1.8791859E-1,-1.4552262E-1,-1.04226924E-1,-7.892878E-2,-5.8827356E-2,-3.2985985E-2,-1.6868176E-2,7.484255E-3,2.7643012E-2,4.7120742E-2,6.502705E-2,8.642732E-2,1.15390204E-1,1.486499E-1],"split_indices":[0,0,0,0,0,0,0,0,0,0,0,0,0,0,0,0,0,0,0,0,0,0,0,0,0,0,0,0,0,0,0],"split_type":[0,0,0,0,0,0,0,0,0,0,0,0,0,0,0,0,0,0,0,0,0,0,0,0,0,0,0,0,0,0,0],"sum_hessian":[8.3972256E5,2.8448294E5,5.552397E5,9.772193E4,1.86761E5,2.766323E5,2.7860734E5,2.8122428E4,6.95995E4,8.796797E4,9.879303E4,1.3938734E5,1.3724495E5,1.4954381E5,1.2906354E5,1.2133158E4,1.5989269E4,2.062419E4,4.897531E4,5.7141625E4,3.0826346E4,6.503927E4,3.375376E4,6.928411E4,7.0103234E4,6.968598E4,6.755898E4,6.3718855E4,8.582496E4,9.2221945E4,3.6841594E4],"tree_param":{"num_deleted":"0","num_feature":"2","num_nodes":"31","size_leaf_vector":"0"}},{"base_weights":[7.103154E-4,3.0770156E-1,-1.5265991E-1,5.8776546E-1,2.1799378E-1,-5.1032104E-2,-2.598064E-1,2.6017427E-1,5.2589494E-1,3.284897E-1,1.6184762E-1,2.529034E-3,-1.1629497E-1,-2.0771049E-1,-3.0502066E-1,1.881942E-1,1.4466633E-1,1.1389166E-1,9.1189355E-2,6.491649E-2,3.830669E-2,1.28621515E-2,-6.8691494E-3,-2.8101252E-2,-4.1401796E-2,-4.9939755E-2,-6.6353776E-2,-8.40487E-2,-1.03162594E-1],"categories":[],"categories_nodes":[],"categories_segments":[],"categories_sizes":[],"default_left":[0,0,0,0,0,0,0,0,0,0,0,0,0,0,0,0,0,0,0,0,0,0,0,0,0,0,0,0,0],"id":20,"left_children":[1,3,5,7,9,11,13,-1,15,17,19,21,23,25,27,-1,-1,-1,-1,-1,-1,-1,-1,-1,-1,-1,-1,-1,-1],"loss_changes":[3.8506297E4,6.80316E3,5.919209E3,1.0650742E3,1.254919E3,9.8501086E2,5.967031E2,0E0,1.7976758E2,4.9879395E1,2.3716455E2,1.5838948E2,4.970337E1,4.7771484E1,1.0276074E2,0E0,0E0,0E0,0E0,0E0,0E0,0E0,0E0,0E0,0E0,0E0,0E0,0E0,0E0],"parents":[2147483647,0,0,1,1,2,2,3,3,4,4,5,5,6,6,8,8,9,9,10,10,11,11,12,12,13,13,14,14],"right_children":[2,4,6,8,10,12,14,-1,16,18,20,22,24,26,28,-1,-1,-1,-1,-1,-1,-1,-1,-1,-1,-1,-1,-1,-1],"split_conditions":[1.3E1,5E0,2.2E1,2E0,8E0,1.8E1,2.6E1,2.6017427E-1,3E0,6E0,1E1,1.5E1,2E1,2.3E1,2.9E1,1.881942E-1,1.4466633E-1,1.1389166E-1,9.1189355E-2,6.491649E-2,3.830669E-2,1.28621515E-2,-6.8691494E-3,-2.8101252E-2,-4.1401796E-2,-4.9939755E-2,-6.6353776E-2,-8.40487E-2,-1.03162594E-1],"split_indices":[1,1,1,1,1,1,1,0,1,1,1,1,1,1,1,0,0,0,0,0,0,0,0,0,0,0,0,0,0],"split_type":[0,0,0,0,0,0,0,0,0,0,0,0,0,0,0,0,0,0,0,0,0,0,0,0,0,0,0,0,0],"sum_hessian":[8.176537E5,2.7251975E5,5.4513394E5,6.596696E4,2.065528E5,2.8003122E5,2.6510272E5,1.179634E4,5.417062E4,6.9267695E4,1.3728511E5,1.5335028E5,1.2668094E5,1.2373471E5,1.41368E5,1.5930023E4,3.8240598E4,2.1731207E4,4.753649E4,5.2258766E4,8.502634E4,6.010399E4,9.32463E4,6.3256156E4,6.3424785E4,3.1449484E4,9.228523E4,8.706361E4,5.4304395E4],"tree_param":{"num_deleted":"0","num_feature":"2","num_nodes":"29","size_leaf_vector":"0"}},{"base_weights":[1.0106891E-3,2.4435031E-1,-9.959804E-2,5.0943786E-1,1.862016E-1,-1.7970374E-2,-1.7658144E-1,2.140863E-1,1.3258736E-1,2.5489923E-1,1.3013352E-1,3.1033583E-2,-5.5565905E-2,-1.2831903E-1,-2.1189278E-1,8.861926E-2,6.561112E-2,4.6173345E-2,3.2128323E-2,1.4674509E-2,3.8886154E-3,-1.0861402E-2,-2.5033712E-2,-3.354119E-2,-4.3304846E-2,-5.59162E-2,-7.172153E-2],"categories":[],"categories_nodes":[],"categories_segments":[],"categories_sizes":[],"default_left":[0,0,0,0,0,0,0,0,0,0,0,0,0,0,0,0,0,0,0,0,0,0,0,0,0,0,0],"id":21,"left_children":[1,3,5,7,9,11,13,-1,-1,15,17,19,21,23,25,-1,-1,-1,-1,-1,-1,-1,-1,-1,-1,-1,-1],"loss_changes":[1.9757479E4,3.6021064E3,3.5749585E3,5.202881E2,7.257085E2,5.1215735E2,4.8144922E2,0E0,0E0,9.92207E1,4.4591064E1,3.5354874E1,7.856619E1,1.9133545E1,9.395117E1,0E0,0E0,0E0,0E0,0E0,0E0,0E0,0E0,0E0,0E0,0E0,0E0],"parents":[2147483647,0,0,1,1,2,2,3,3,4,4,5,5,6,6,9,9,10,10,11,11,12,12,13,13,14,14],"right_children":[2,4,6,8,10,12,14,-1,-1,16,18,20,22,24,26,-1,-1,-1,-1,-1,-1,-1,-1,-1,-1,-1,-1],"split_conditions":[1.2E1,4E0,2.1E1,2E0,8E0,1.6E1,2.5E1,2.140863E-1,1.3258736E-1,6E0,1E1,1.4E1,1.9E1,2.3E1,2.8E1,8.861926E-2,6.561112E-2,4.6173345E-2,3.2128323E-2,1.4674509E-2,3.8886154E-3,-1.0861402E-2,-2.5033712E-2,-3.354119E-2,-4.3304846E-2,-5.59162E-2,-7.172153E-2],"split_indices":[1,1,1,1,1,1,1,0,0,1,1,1,1,1,1,0,0,0,0,0,0,0,0,0,0,0,0],"split_type":[0,0,0,0,0,0,0,0,0,0,0,0,0,0,0,0,0,0,0,0,0,0,0,0,0,0,0],"sum_hessian":[8.066966E5,2.3612439E5,5.705722E5,4.2309418E4,1.9381497E5,2.7727366E5,2.9329853E5,1.0308655E4,3.2000762E4,8.666372E4,1.0715125E5,1.19749625E5,1.5752403E5,1.2457144E5,1.6872711E5,4.0193793E4,4.6469926E4,5.1574664E4,5.557659E4,5.8688676E4,6.106095E4,9.410875E4,6.341529E4,6.3020934E4,6.15505E4,8.8071875E4,8.065523E4],"tree_param":{"num_deleted":"0","num_feature":"2","num_nodes":"27","size_leaf_vector":"0"}},{"base_weights":[1.0412128E-3,-3.768378E-1,1.9035988E-1,-7.049814E-1,-2.6683953E-1,3.9306473E-2,3.0652344E-1,-8.8865197E-1,-5.877541E-1,-3.852285E-1,-1.9115034E-1,-3.410795E-2,9.443326E-2,2.4297981E-1,3.962771E-1,-3.028993E-1,-2.3845065E-1,-1.9139351E-1,-1.6229066E-1,-1.2651587E-1,-9.509349E-2,-7.28413E-2,-4.2537138E-2,-2.3341741E-2,-3.542045E-3,1.7993536E-2,3.856535E-2,5.754821E-2,8.13222E-2,1.0637847E-1,1.3427433E-1],"categories":[],"categories_nodes":[],"categories_segments":[],"categories_sizes":[],"default_left":[0,0,0,0,0,0,0,0,0,0,0,0,0,0,0,0,0,0,0,0,0,0,0,0,0,0,0,0,0,0,0],"id":22,"left_children":[1,3,5,7,9,11,13,15,17,19,21,23,25,27,29,-1,-1,-1,-1,-1,-1,-1,-1,-1,-1,-1,-1,-1,-1,-1,-1],"loss_changes":[5.7108594E4,9.563156E3,9.316615E3,1.3571992E3,1.7577754E3,9.400867E2,1.6794609E3,1.9507617E2,3.2217773E1,1.5320996E2,2.904209E2,9.1494965E1,1.4571936E2,2.2834082E2,2.2219336E2,0E0,0E0,0E0,0E0,0E0,0E0,0E0,0E0,0E0,0E0,0E0,0E0,0E0,0E0,0E0,0E0],"parents":[2147483647,0,0,1,1,2,2,3,3,4,4,5,5,6,6,7,7,8,8,9,9,10,10,11,11,12,12,13,13,14,14],"right_children":[2,4,6,8,10,12,14,16,18,20,22,24,26,28,30,-1,-1,-1,-1,-1,-1,-1,-1,-1,-1,-1,-1,-1,-1,-1,-1],"split_conditions":[1.2E1,5E0,1.9E1,3E0,8E0,1.5E1,2.5E1,2E0,4E0,7E0,1E1,1.3E1,1.7E1,2.1E1,2.8E1,-3.028993E-1,-2.3845065E-1,-1.9139351E-1,-1.6229066E-1,-1.2651587E-1,-9.509349E-2,-7.28413E-2,-4.2537138E-2,-2.3341741E-2,-3.542045E-3,1.7993536E-2,3.856535E-2,5.754821E-2,8.13222E-2,1.0637847E-1,1.3427433E-1],"split_indices":[0,0,0,0,0,0,0,0,0,0,0,0,0,0,0,0,0,0,0,0,0,0,0,0,0,0,0,0,0,0,0],"split_type":[0,0,0,0,0,0,0,0,0,0,0,0,0,0,0,0,0,0,0,0,0,0,0,0,0,0,0,0,0,0,0],"sum_hessian":[7.984191E5,2.6640003E5,5.3201906E5,6.675698E4,1.9964306E5,2.3147994E5,3.0053916E5,2.582627E4,4.0930707E4,7.757986E4,1.2206321E5,9.8853625E4,1.3262631E5,1.7631608E5,1.2422308E5,1.1023375E4,1.4802895E4,1.9177943E4,2.1752762E4,5.0033176E4,2.7546684E4,5.910929E4,6.2953918E4,3.2583826E4,6.62698E4,6.677601E4,6.5850305E4,6.319065E4,1.1312542E5,6.912308E4,5.51E4],"tree_param":{"num_deleted":"0","num_feature":"2","num_nodes":"31","size_leaf_vector":"0"}},{"base_weights":[2.4783358E-4,-3.0601394E-1,1.2511586E-1,-5.5394024E-1,-2.1408123E-1,1.5546065E-2,2.2414197E-1,-7.3854584E-1,-4.4478709E-1,-2.7967456E-1,-1.581179E-1,-3.559586E-2,6.6354945E-2,1.8091296E-1,3.146575E-1,-2.622521E-1,-1.9183923E-1,-1.4656252E-1,-1.213028E-1,-1.02140725E-1,-7.55021E-2,-5.9130523E-2,-4.1663773E-2,-1.8882185E-2,-2.479923E-3,1.2599094E-2,2.7088994E-2,4.3098684E-2,6.398821E-2,8.8907756E-2,1.2050791E-1],"categories":[],"categories_nodes":[],"categories_segments":[],"categories_sizes":[],"default_left":[0,0,0,0,0,0,0,0,0,0,0,0,0,0,0,0,0,0,0,0,0,0,0,0,0,0,0,0,0,0,0],"id":23,"left_children":[1,3,5,7,9,11,13,15,17,19,21,23,25,27,29,-1,-1,-1,-1,-1,-1,-1,-1,-1,-1,-1,-1,-1,-1,-1,-1],"loss_changes":[2.9770484E4,5.096246E3,5.9906016E3,1.1612832E3,5.8054346E2,6.848781E2,1.1094141E3,2.189668E2,1.9574707E1,9.619336E1,4.8783203E1,9.368419E1,7.007904E1,2.1823584E2,1.1103418E2,0E0,0E0,0E0,0E0,0E0,0E0,0E0,0E0,0E0,0E0,0E0,0E0,0E0,0E0,0E0,0E0],"parents":[2147483647,0,0,1,1,2,2,3,3,4,4,5,5,6,6,7,7,8,8,9,9,10,10,11,11,12,12,13,13,14,14],"right_children":[2,4,6,8,10,12,14,16,18,20,22,24,26,28,30,-1,-1,-1,-1,-1,-1,-1,-1,-1,-1,-1,-1,-1,-1,-1,-1],"split_conditions":[1.1E1,5E0,1.9E1,3E0,8E0,1.5E1,2.6E1,2E0,4E0,6E0,9E0,1.3E1,1.7E1,2.2E1,3E1,-2.622521E-1,-1.9183923E-1,-1.4656252E-1,-1.213028E-1,-1.02140725E-1,-7.55021E-2,-5.9130523E-2,-4.1663773E-2,-1.8882185E-2,-2.479923E-3,1.2599094E-2,2.7088994E-2,4.3098684E-2,6.398821E-2,8.8907756E-2,1.2050791E-1],"split_indices":[0,0,0,0,0,0,0,0,0,0,0,0,0,0,0,0,0,0,0,0,0,0,0,0,0,0,0,0,0,0,0],"split_type":[0,0,0,0,0,0,0,0,0,0,0,0,0,0,0,0,0,0,0,0,0,0,0,0,0,0,0,0,0,0,0],"sum_hessian":[7.787237E5,2.2541595E5,5.5330775E5,6.08155E4,1.6460045E5,2.6292947E5,2.9037828E5,2.2411797E4,3.8403703E4,7.5334375E4,8.9266086E4,1.3050574E5,1.3242373E5,1.9692752E5,9.345076E4,9.228124E3,1.3183672E4,1.7801006E4,2.0602697E4,2.3144912E4,5.218946E4,2.8566395E4,6.069969E4,6.424638E4,6.625936E4,6.6760414E4,6.566332E4,9.2355484E4,1.0457202E5,7.773253E4,1.5718227E4],"tree_param":{"num_deleted":"0","num_feature":"2","num_nodes":"31","size_leaf_vector":"0"}},{"base_weights":[-6.8710375E-5,2.9207486E-1,-1.4175555E-1,5.572927E-1,2.0991296E-1,-3.752142E-2,-2.2763307E-1,2.4353907E-1,5.037674E-1,2.9315105E-1,1.3931736E-1,1.6510883E-2,-8.9807004E-2,-1.7314108E-1,-2.6679075E-1,1.8123692E-1,1.3826013E-1,1.0251006E-1,7.4627414E-2,5.3405102E-2,3.0593505E-2,1.25970375E-2,-2.1612435E-3,-1.9830119E-2,-3.3699792E-2,-4.577936E-2,-5.793412E-2,-7.446264E-2,-9.178482E-2],"categories":[],"categories_nodes":[],"categories_segments":[],"categories_sizes":[],"default_left":[0,0,0,0,0,0,0,0,0,0,0,0,0,0,0,0,0,0,0,0,0,0,0,0,0,0,0,0,0],"id":24,"left_children":[1,3,5,7,9,11,13,-1,15,17,19,21,23,25,27,-1,-1,-1,-1,-1,-1,-1,-1,-1,-1,-1,-1,-1,-1],"loss_changes":[3.160864E4,5.3916934E3,4.5910215E3,7.298281E2,1.0961523E3,6.6133167E2,5.774961E2,0E0,1.5223535E2,1.5571826E2,1.3433777E2,7.071741E1,5.377893E1,2.9888428E1,8.890039E1,0E0,0E0,0E0,0E0,0E0,0E0,0E0,0E0,0E0,0E0,0E0,0E0,0E0,0E0],"parents":[2147483647,0,0,1,1,2,2,3,3,4,4,5,5,6,6,8,8,9,9,10,10,11,11,12,12,13,13,14,14],"right_children":[2,4,6,8,10,12,14,-1,16,18,20,22,24,26,28,-1,-1,-1,-1,-1,-1,-1,-1,-1,-1,-1,-1,-1,-1],"split_conditions":[1.3E1,5E0,2.1E1,2E0,9E0,1.7E1,2.5E1,2.4353907E-1,3E0,7E0,1.1E1,1.5E1,1.9E1,2.3E1,2.9E1,1.8123692E-1,1.3826013E-1,1.0251006E-1,7.4627414E-2,5.3405102E-2,3.0593505E-2,1.25970375E-2,-2.1612435E-3,-1.9830119E-2,-3.3699792E-2,-4.577936E-2,-5.793412E-2,-7.446264E-2,-9.178482E-2],"split_indices":[1,1,1,1,1,1,1,0,1,1,1,1,1,1,1,0,0,0,0,0,0,0,0,0,0,0,0,0,0],"split_type":[0,0,0,0,0,0,0,0,0,0,0,0,0,0,0,0,0,0,0,0,0,0,0,0,0,0,0,0,0],"sum_hessian":[7.6381906E5,2.4933472E5,5.1448438E5,5.881576E4,1.9051895E5,2.3268825E5,2.8179612E5,1.0042792E4,4.877297E4,8.707849E4,1.0344047E5,1.1392506E5,1.1876319E5,1.1840582E5,1.633903E5,1.4225512E4,3.4547457E4,4.100853E4,4.606996E4,5.008299E4,5.3357477E4,5.60171E4,5.7907965E4,5.9034402E4,5.972878E4,5.9705695E4,5.8700125E4,1.1174785E5,5.1642453E4],"tree_param":{"num_deleted":"0","num_feature":"2","num_nodes":"29","size_leaf_vector":"0"}},{"base_weights":[2.7748424E-4,2.3115702E-1,-9.2349514E-2,4.7716853E-1,1.7879914E-1,-8.561935E-3,-1.5445596E-1,1.9687138E-1,1.2600984E-1,2.454877E-1,1.24815345E-1,2.9664187E-2,-4.51457E-2,-1.2160652E-1,-1.9788784E-1,8.5259445E-2,6.328411E-2,4.4527408E-2,3.057985E-2,1.4584052E-2,3.1683769E-3,-7.5671286E-3,-1.9152747E-2,-2.765493E-2,-4.086484E-2,-5.617363E-2,-7.2514266E-2],"categories":[],"categories_nodes":[],"categories_segments":[],"categories_sizes":[],"default_left":[0,0,0,0,0,0,0,0,0,0,0,0,0,0,0,0,0,0,0,0,0,0,0,0,0,0,0],"id":25,"left_children":[1,3,5,7,9,11,13,-1,-1,15,17,19,21,23,25,-1,-1,-1,-1,-1,-1,-1,-1,-1,-1,-1,-1],"loss_changes":[1.6154596E4,2.7512588E3,2.7944062E3,3.282207E2,6.2284375E2,3.2204733E2,4.235835E2,0E0,0E0,7.942285E1,4.0023804E1,3.7202667E1,3.917401E1,6.358911E1,3.853125E1,0E0,0E0,0E0,0E0,0E0,0E0,0E0,0E0,0E0,0E0,0E0,0E0],"parents":[2147483647,0,0,1,1,2,2,3,3,4,4,5,5,6,6,9,9,10,10,11,11,12,12,13,13,14,14],"right_children":[2,4,6,8,10,12,14,-1,-1,16,18,20,22,24,26,-1,-1,-1,-1,-1,-1,-1,-1,-1,-1,-1,-1],"split_conditions":[1.2E1,4E0,2E1,2E0,8E0,1.6E1,2.6E1,1.9687138E-1,1.2600984E-1,6E0,1E1,1.4E1,1.8E1,2.2E1,3E1,8.5259445E-2,6.328411E-2,4.4527408E-2,3.057985E-2,1.4584052E-2,3.1683769E-3,-7.5671286E-3,-1.9152747E-2,-2.765493E-2,-4.086484E-2,-5.617363E-2,-7.2514266E-2],"split_indices":[1,1,1,1,1,1,1,0,0,1,1,1,1,1,1,0,0,0,0,0,0,0,0,0,0,0,0],"split_type":[0,0,0,0,0,0,0,0,0,0,0,0,0,0,0,0,0,0,0,0,0,0,0,0,0,0,0],"sum_hessian":[7.5504094E5,2.163513E5,5.386896E5,3.778313E4,1.7856817E5,2.2968836E5,3.0900128E5,8.908564E3,2.8874564E4,7.943509E4,9.913307E4,1.1160117E5,1.1808718E5,1.7664416E5,1.3235714E5,3.6716535E4,4.271856E4,4.7627805E4,5.1505266E4,5.460607E4,5.69951E4,5.856974E4,5.9517445E4,5.9836797E4,1.1680736E5,1.07491555E5,2.486559E4],"tree_param":{"num_deleted":"0","num_feature":"2","num_nodes":"27","size_leaf_vector":"0"}},{"base_weights":[4.6668513E-4,-3.3333427E-1,1.3404597E-1,-5.9135956E-1,-2.3744182E-1,2.0042105E-2,2.3481019E-1,-7.709148E-1,-4.8541337E-1,-3.4554958E-1,-1.9185962E-1,-5.6608707E-2,6.5027855E-2,1.7663997E-1,2.9396397E-1,-2.6939818E-1,-2.0365386E-1,-1.5884215E-1,-1.3335508E-1,-1.1272423E-1,-9.468079E-2,-7.021331E-2,-4.5705043E-2,-2.1021355E-2,-8.624067E-3,7.7059553E-3,2.722784E-2,4.4601202E-2,5.8932383E-2,7.6820344E-2,9.927337E-2],"categories":[],"categories_nodes":[],"categories_segments":[],"categories_sizes":[],"default_left":[0,0,0,0,0,0,0,0,0,0,0,0,0,0,0,0,0,0,0,0,0,0,0,0,0,0,0,0,0,0,0],"id":26,"left_children":[1,3,5,7,9,11,13,15,17,19,21,23,25,27,29,-1,-1,-1,-1,-1,-1,-1,-1,-1,-1,-1,-1,-1,-1,-1,-1],"loss_changes":[3.3362957E4,5.24516E3,6.1283066E3,1.0309102E3,7.3979297E2,8.663307E2,9.5028906E2,1.6293848E2,1.3019531E1,4.0942383E0,1.6261597E2,2.9330048E1,1.5434808E2,6.0776367E1,1.644375E2,0E0,0E0,0E0,0E0,0E0,0E0,0E0,0E0,0E0,0E0,0E0,0E0,0E0,0E0,0E0,0E0],"parents":[2147483647,0,0,1,1,2,2,3,3,4,4,5,5,6,6,7,7,8,8,9,9,10,10,11,11,12,12,13,13,14,14],"right_children":[2,4,6,8,10,12,14,16,18,20,22,24,26,28,30,-1,-1,-1,-1,-1,-1,-1,-1,-1,-1,-1,-1,-1,-1,-1,-1],"split_conditions":[1.1E1,5E0,1.9E1,3E0,7E0,1.4E1,2.4E1,2E0,4E0,6E0,9E0,1.3E1,1.6E1,2.1E1,2.7E1,-2.6939818E-1,-2.0365386E-1,-1.5884215E-1,-1.3335508E-1,-1.1272423E-1,-9.468079E-2,-7.021331E-2,-4.5705043E-2,-2.1021355E-2,-8.624067E-3,7.7059553E-3,2.722784E-2,4.4601202E-2,5.8932383E-2,7.6820344E-2,9.927337E-2],"split_indices":[0,0,0,0,0,0,0,0,0,0,0,0,0,0,0,0,0,0,0,0,0,0,0,0,0,0,0,0,0,0,0],"split_type":[0,0,0,0,0,0,0,0,0,0,0,0,0,0,0,0,0,0,0,0,0,0,0,0,0,0,0,0,0,0,0],"sum_hessian":[7.484744E5,2.138013E5,5.3467306E5,5.777472E4,1.5602658E5,2.5110817E5,2.835649E5,2.1248361E4,3.6526355E4,4.592216E4,1.10104414E5,9.242517E4,1.58683E5,1.4343306E5,1.4013184E5,8.677295E3,1.2571066E4,1.6942438E4,1.9583918E4,2.1962486E4,2.3959672E4,5.258634E4,5.751808E4,6.1007617E4,3.141755E4,6.357808E4,9.510492E4,6.0587594E4,8.284546E4,6.990246E4,7.022939E4],"tree_param":{"num_deleted":"0","num_feature":"2","num_nodes":"31","size_leaf_vector":"0"}},{"base_weights":[-0E0,2.3419763E-1,-9.2897825E-2,4.2513347E-1,1.6883549E-1,-8.991071E-3,-1.5454088E-1,5.427538E-1,1.0345822E-1,2.338248E-1,1.2775907E-1,3.038081E-2,-4.654487E-2,-1.0774526E-1,-1.8338512E-1,1.9358917E-1,1.4120357E-1,7.601827E-2,5.874892E-2,4.260999E-2,2.5784673E-2,1.5149392E-2,3.0473308E-3,-8.06514E-3,-1.9476792E-2,-2.83546E-2,-3.6052674E-2,-4.691391E-2,-6.1486952E-2],"categories":[],"categories_nodes":[],"categories_segments":[],"categories_sizes":[],"default_left":[0,0,0,0,0,0,0,0,0,0,0,0,0,0,0,0,0,0,0,0,0,0,0,0,0,0,0,0,0],"id":27,"left_children":[1,3,5,7,9,11,13,15,-1,17,19,21,23,25,27,-1,-1,-1,-1,-1,-1,-1,-1,-1,-1,-1,-1,-1,-1],"loss_changes":[1.5971154E4,2.5696436E3,2.7100718E3,4.5189453E2,3.9561914E2,3.3059778E2,3.9279785E2,9.6206055E1,0E0,2.0102783E1,4.4854614E1,4.072879E1,3.653534E1,7.4953613E0,8.912451E1,0E0,0E0,0E0,0E0,0E0,0E0,0E0,0E0,0E0,0E0,0E0,0E0,0E0,0E0],"parents":[2147483647,0,0,1,1,2,2,3,3,4,4,5,5,6,6,7,7,9,9,10,10,11,11,12,12,13,13,14,14],"right_children":[2,4,6,8,10,12,14,16,-1,18,20,22,24,26,28,-1,-1,-1,-1,-1,-1,-1,-1,-1,-1,-1,-1,-1,-1],"split_conditions":[1.2E1,5E0,2E1,3E0,8E0,1.6E1,2.4E1,2E0,1.0345822E-1,7E0,1.1E1,1.4E1,1.8E1,2.2E1,2.7E1,1.9358917E-1,1.4120357E-1,7.601827E-2,5.874892E-2,4.260999E-2,2.5784673E-2,1.5149392E-2,3.0473308E-3,-8.06514E-3,-1.9476792E-2,-2.83546E-2,-3.6052674E-2,-4.691391E-2,-6.1486952E-2],"split_indices":[1,1,1,1,1,1,1,1,0,1,1,1,1,1,1,0,0,0,0,0,0,0,0,0,0,0,0,0,0],"split_type":[0,0,0,0,0,0,0,0,0,0,0,0,0,0,0,0,0,0,0,0,0,0,0,0,0,0,0,0,0],"sum_hessian":[7.3414406E5,2.0847552E5,5.2566856E5,5.2954355E4,1.5552117E5,2.2300188E5,3.026667E5,2.1205352E4,3.1749004E4,5.9718496E4,9.580267E4,1.081638E5,1.1483808E5,1.1613328E5,1.865334E5,8.440596E3,1.2764755E4,3.8475496E4,2.1243002E4,7.045524E4,2.5347428E4,5.2884574E4,5.527922E4,5.6902555E4,5.793552E4,5.8365246E4,5.7768035E4,8.3948266E4,1.0258513E5],"tree_param":{"num_deleted":"0","num_feature":"2","num_nodes":"29","size_leaf_vector":"0"}},{"base_weights":[2.2558673E-4,1.6888478E-1,-6.546415E-2,3.6167097E-1,1.298883E-1,-6.216824E-3,-1.09203845E-1,1.525369E-1,9.516677E-2,1.7932065E-1,9.0351805E-2,1.5224347E-2,-1.2186763E-2,-8.109519E-2,-1.3480592E-1,6.284549E-2,4.5704953E-2,3.3423934E-2,2.0957695E-2,8.753686E-3,-1.1129815E-3,-2.11199E-2,-2.8958665E-2,-3.53992E-2,-4.5744702E-2],"categories":[],"categories_nodes":[],"categories_segments":[],"categories_sizes":[],"default_left":[0,0,0,0,0,0,0,0,0,0,0,0,0,0,0,0,0,0,0,0,0,0,0,0,0],"id":28,"left_children":[1,3,5,7,9,11,13,-1,-1,15,17,19,-1,21,23,-1,-1,-1,-1,-1,-1,-1,-1,-1,-1],"loss_changes":[8.0713574E3,1.5093208E3,1.3509514E3,1.7800781E2,3.1798047E2,1.6584372E2,2.0477246E2,0E0,0E0,4.145703E1,3.1272644E1,3.741205E1,0E0,1.4811523E1,3.1845459E1,0E0,0E0,0E0,0E0,0E0,0E0,0E0,0E0,0E0,0E0],"parents":[2147483647,0,0,1,1,2,2,3,3,4,4,5,5,6,6,9,9,10,10,11,11,13,13,14,14],"right_children":[2,4,6,8,10,12,14,-1,-1,16,18,20,-1,22,24,-1,-1,-1,-1,-1,-1,-1,-1,-1,-1],"split_conditions":[1.2E1,4E0,2E1,2E0,8E0,1.7E1,2.5E1,1.525369E-1,9.516677E-2,6E0,1E1,1.5E1,-1.2186763E-2,2.3E1,2.8E1,6.284549E-2,4.5704953E-2,3.3423934E-2,2.0957695E-2,8.753686E-3,-1.1129815E-3,-2.11199E-2,-2.8958665E-2,-3.53992E-2,-4.5744702E-2],"split_indices":[1,1,1,1,1,1,1,0,0,1,1,1,0,1,1,0,0,0,0,0,0,0,0,0,0],"split_type":[0,0,0,0,0,0,0,0,0,0,0,0,0,0,0,0,0,0,0,0,0,0,0,0,0],"sum_hessian":[7.280101E5,2.0429666E5,5.2371344E5,3.4137887E4,1.7015877E5,2.2295148E5,3.0076197E5,7.650184E3,2.6487703E4,7.5007836E4,9.515093E4,1.3638758E5,8.65639E4,1.4437008E5,1.5639189E5,3.4459793E4,4.054804E4,4.5623203E4,4.9527727E4,8.016058E4,5.622701E4,8.734428E4,5.7025797E4,8.1733086E4,7.4658805E4],"tree_param":{"num_deleted":"0","num_feature":"2","num_nodes":"25","size_leaf_vector":"0"}},{"base_weights":[2.950456E-4,1.114467E-1,-5.0485168E-2,2.681581E-1,8.489371E-2,-1.3684855E-2,-8.108541E-2,1.1784981E-1,2.3167337E-1,1.205023E-1,4.9599867E-2,4.305042E-3,-3.1294834E-2,-6.723202E-2,-1.0403982E-1,8.041153E-2,5.9204794E-2,4.1967306E-2,2.8563332E-2,1.81876E-2,1.1500936E-2,3.7429114E-3,-7.7899796E-4,-6.5443567E-3,-1.1919231E-2,-1.7082395E-2,-2.3194917E-2,-2.8623724E-2,-3.8880073E-2],"categories":[],"categories_nodes":[],"categories_segments":[],"categories_sizes":[],"default_left":[0,0,0,0,0,0,0,0,0,0,0,0,0,0,0,0,0,0,0,0,0,0,0,0,0,0,0,0,0],"id":29,"left_children":[1,3,5,7,9,11,13,-1,15,17,19,21,23,25,27,-1,-1,-1,-1,-1,-1,-1,-1,-1,-1,-1,-1,-1,-1],"loss_changes":[4.0869211E3,9.263904E2,5.5374304E2,1.14603516E2,2.353623E2,7.309173E1,7.665674E1,0E0,6.748169E0,3.4417236E1,6.8849335E0,6.7560334E0,5.9354935E0,1.0383118E1,9.937744E0,0E0,0E0,0E0,0E0,0E0,0E0,0E0,0E0,0E0,0E0,0E0,0E0,0E0,0E0],"parents":[2147483647,0,0,1,1,2,2,3,3,4,4,5,5,6,6,8,8,9,9,10,10,11,11,12,12,13,13,14,14],"right_children":[2,4,6,8,10,12,14,-1,16,18,20,22,24,26,28,-1,-1,-1,-1,-1,-1,-1,-1,-1,-1,-1,-1,-1,-1],"split_conditions":[1.3E1,4E0,2.1E1,2E0,9E0,1.7E1,2.7E1,1.1784981E-1,3E0,7E0,1.1E1,1.5E1,1.9E1,2.4E1,3E1,8.041153E-2,5.9204794E-2,4.1967306E-2,2.8563332E-2,1.81876E-2,1.1500936E-2,3.7429114E-3,-7.7899796E-4,-6.5443567E-3,-1.1919231E-2,-1.7082395E-2,-2.3194917E-2,-2.8623724E-2,-3.8880073E-2],"split_indices":[1,1,1,1,1,1,1,0,1,1,1,1,1,1,1,0,0,0,0,0,0,0,0,0,0,0,0,0,0],"split_type":[0,0,0,0,0,0,0,0,0,0,0,0,0,0,0,0,0,0,0,0,0,0,0,0,0,0,0,0,0],"sum_hessian":[7.234938E5,2.2721356E5,4.9628022E5,3.2624945E4,1.9458862E5,2.2611588E5,2.7016434E5,7.048949E3,2.5575996E4,9.609974E4,9.8488875E4,1.1033486E5,1.15781016E5,1.6995147E5,1.0021289E5,1.1652003E4,1.3923992E4,5.318674E4,4.2913004E4,4.7345516E4,5.114336E4,5.410282E4,5.623204E4,5.7531438E4,5.8249582E4,8.676833E4,8.318313E4,7.650641E4,2.3706488E4],"tree_param":{"num_deleted":"0","num_feature":"2","num_nodes":"29","size_leaf_vector":"0"}},{"base_weights":[2.827436E-4,-3.214856E-1,1.5262976E-1,-6.257694E-1,-2.2718917E-1,3.9449904E-2,2.3908773E-1,-8.087979E-1,-5.181229E-1,-3.3586997E-1,-1.591452E-1,-2.1894814E-2,8.495914E-2,1.8594965E-1,2.9267547E-1,-2.7969682E-1,-2.1589054E-1,-1.6923817E-1,-1.4262214E-1,-1.1062557E-1,-8.239878E-2,-6.1414953E-2,-3.475735E-2,-1.1917947E-2,3.384842E-3,1.6269306E-2,3.450074E-2,4.7360685E-2,6.170626E-2,8.219633E-2,1.0627509E-1],"categories":[],"categories_nodes":[],"categories_segments":[],"categories_sizes":[],"default_left":[0,0,0,0,0,0,0,0,0,0,0,0,0,0,0,0,0,0,0,0,0,0,0,0,0,0,0,0,0,0,0],"id":30,"left_children":[1,3,5,7,9,11,13,15,17,19,21,23,25,27,29,-1,-1,-1,-1,-1,-1,-1,-1,-1,-1,-1,-1,-1,-1,-1,-1],"loss_changes":[3.5295605E4,6.5907246E3,4.7689404E3,1.00348047E3,1.2800967E3,5.9525684E2,7.62584E2,1.3079883E2,1.1547852E1,1.01495605E2,1.9766187E2,5.4654972E1,1.0368115E2,5.7680664E1,1.2404785E2,0E0,0E0,0E0,0E0,0E0,0E0,0E0,0E0,0E0,0E0,0E0,0E0,0E0,0E0,0E0,0E0],"parents":[2147483647,0,0,1,1,2,2,3,3,4,4,5,5,6,6,7,7,8,8,9,9,10,10,11,11,12,12,13,13,14,14],"right_children":[2,4,6,8,10,12,14,16,18,20,22,24,26,28,30,-1,-1,-1,-1,-1,-1,-1,-1,-1,-1,-1,-1,-1,-1,-1,-1],"split_conditions":[1.2E1,5E0,1.9E1,3E0,8E0,1.5E1,2.4E1,2E0,4E0,7E0,1E1,1.4E1,1.7E1,2.1E1,2.9E1,-2.7969682E-1,-2.1589054E-1,-1.6923817E-1,-1.4262214E-1,-1.1062557E-1,-8.239878E-2,-6.1414953E-2,-3.475735E-2,-1.1917947E-2,3.384842E-3,1.6269306E-2,3.450074E-2,4.7360685E-2,6.170626E-2,8.219633E-2,1.0627509E-1],"split_indices":[0,0,0,0,0,0,0,0,0,0,0,0,0,0,0,0,0,0,0,0,0,0,0,0,0,0,0,0,0,0,0],"split_type":[0,0,0,0,0,0,0,0,0,0,0,0,0,0,0,0,0,0,0,0,0,0,0,0,0,0,0,0,0,0,0],"sum_hessian":[7.202023E5,2.3130769E5,4.8889462E5,5.458633E4,1.7672136E5,2.1199862E5,2.76896E5,2.0027246E4,3.4559082E4,6.773579E4,1.0898557E5,8.978531E4,1.2221331E5,1.3953922E5,1.3735678E5,8.138486E3,1.1888761E4,1.60253E4,1.8533781E4,4.3487035E4,2.424875E4,5.2482887E4,5.6502688E4,5.9456957E4,3.0328355E4,6.1307863E4,6.090545E4,5.8729496E4,8.080973E4,1.060521E5,3.1304674E4],"tree_param":{"num_deleted":"0","num_feature":"2","num_nodes":"31","size_leaf_vector":"0"}},{"base_weights":[-5.3813565E-5,-2.5945225E-1,9.959044E-2,-4.8259968E-1,-1.81708E-1,5.8865813E-3,1.6500703E-1,-6.56253E-1,-1.1609545E-1,-2.423441E-1,-1.306664E-1,-3.8973425E-2,3.8630903E-2,1.1667483E-1,2.0861931E-1,-2.3611377E-1,-1.7002016E-1,-9.0291955E-2,-6.462537E-2,-4.9789373E-2,-3.3953223E-2,-1.5233547E-2,-4.301323E-3,5.6156307E-3,1.7265776E-2,2.8802317E-2,3.9268173E-2,5.4499887E-2,7.3686585E-2],"categories":[],"categories_nodes":[],"categories_segments":[],"categories_sizes":[],"default_left":[0,0,0,0,0,0,0,0,0,0,0,0,0,0,0,0,0,0,0,0,0,0,0,0,0,0,0,0,0],"id":31,"left_children":[1,3,5,7,9,11,13,15,-1,17,19,21,23,25,27,-1,-1,-1,-1,-1,-1,-1,-1,-1,-1,-1,-1,-1,-1],"loss_changes":[1.8274412E4,3.3690576E3,3.1194219E3,7.8248047E2,4.3088965E2,3.0870844E2,6.152588E2,1.3424023E2,0E0,7.6447754E1,3.4059204E1,2.207138E1,4.1917755E1,2.975879E1,1.3370068E2,0E0,0E0,0E0,0E0,0E0,0E0,0E0,0E0,0E0,0E0,0E0,0E0,0E0,0E0],"parents":[2147483647,0,0,1,1,2,2,3,3,4,4,5,5,6,6,7,7,9,9,10,10,11,11,12,12,13,13,14,14],"right_children":[2,4,6,8,10,12,14,16,-1,18,20,22,24,26,28,-1,-1,-1,-1,-1,-1,-1,-1,-1,-1,-1,-1,-1,-1],"split_conditions":[1.1E1,5E0,1.8E1,3E0,8E0,1.4E1,2.3E1,2E0,-1.1609545E-1,6E0,9E0,1.3E1,1.6E1,2E1,2.7E1,-2.3611377E-1,-1.7002016E-1,-9.0291955E-2,-6.462537E-2,-4.9789373E-2,-3.3953223E-2,-1.5233547E-2,-4.301323E-3,5.6156307E-3,1.7265776E-2,2.8802317E-2,3.9268173E-2,5.4499887E-2,7.3686585E-2],"split_indices":[0,0,0,0,0,0,0,0,0,0,0,0,0,0,0,0,0,0,0,0,0,0,0,0,0,0,0,0,0],"split_type":[0,0,0,0,0,0,0,0,0,0,0,0,0,0,0,0,0,0,0,0,0,0,0,0,0,0,0,0,0],"sum_hessian":[7.066714E5,1.9627083E5,5.1040053E5,5.0531742E4,1.4573908E5,2.1017234E5,3.002282E5,1.7741055E4,3.2790688E4,6.612411E4,7.961497E4,8.798408E4,1.22188266E5,1.4299695E5,1.5723125E5,6.960851E3,1.0780202E4,2.017683E4,4.5947277E4,2.5351957E4,5.4263016E4,5.7998953E4,2.9985127E4,6.0927316E4,6.126095E4,5.9834E4,8.3162945E4,9.1816086E4,6.541516E4],"tree_param":{"num_deleted":"0","num_feature":"2","num_nodes":"29","size_leaf_vector":"0"}},{"base_weights":[-3.042093E-4,-1.882722E-1,7.0863426E-2,-4.3091977E-1,-1.4214845E-1,4.0431772E-3,1.1825923E-1,-1.957614E-1,-3.7367684E-1,-2.108745E-1,-1.0244281E-1,-2.7505195E-2,2.7178848E-2,8.234024E-2,1.5133573E-1,-1.3123535E-1,-9.77787E-2,-6.969817E-2,-5.165238E-2,-3.7967578E-2,-2.391544E-2,-1.3523203E-2,-5.4440456E-3,6.8390585E-4,1.0445187E-2,2.0225246E-2,2.774274E-2,4.2805854E-2,7.110447E-2],"categories":[],"categories_nodes":[],"categories_segments":[],"categories_sizes":[],"default_left":[0,0,0,0,0,0,0,0,0,0,0,0,0,0,0,0,0,0,0,0,0,0,0,0,0,0,0,0,0],"id":32,"left_children":[1,3,5,7,9,11,13,-1,15,17,19,21,23,25,27,-1,-1,-1,-1,-1,-1,-1,-1,-1,-1,-1,-1,-1,-1],"loss_changes":[9.324663E3,2.1123857E3,1.5929421E3,3.300547E2,4.2270825E2,1.5330386E2,3.378628E2,0E0,3.282251E1,2.6687988E1,4.5088135E1,1.1037537E1,2.123336E1,1.2869995E1,9.270288E1,0E0,0E0,0E0,0E0,0E0,0E0,0E0,0E0,0E0,0E0,0E0,0E0,0E0,0E0],"parents":[2147483647,0,0,1,1,2,2,3,3,4,4,5,5,6,6,8,8,9,9,10,10,11,11,12,12,13,13,14,14],"right_children":[2,4,6,8,10,12,14,-1,16,18,20,22,24,26,28,-1,-1,-1,-1,-1,-1,-1,-1,-1,-1,-1,-1,-1,-1],"split_conditions":[1.1E1,4E0,1.8E1,2E0,7E0,1.4E1,2.3E1,-1.957614E-1,3E0,6E0,9E0,1.2E1,1.5E1,2E1,3E1,-1.3123535E-1,-9.77787E-2,-6.969817E-2,-5.165238E-2,-3.7967578E-2,-2.391544E-2,-1.3523203E-2,-5.4440456E-3,6.8390585E-4,1.0445187E-2,2.0225246E-2,2.774274E-2,4.2805854E-2,7.110447E-2],"split_indices":[0,0,0,0,0,0,0,0,0,0,0,0,0,0,0,0,0,0,0,0,0,0,0,0,0,0,0,0,0],"split_type":[0,0,0,0,0,0,0,0,0,0,0,0,0,0,0,0,0,0,0,0,0,0,0,0,0,0,0,0,0],"sum_hessian":[6.965788E5,1.9151272E5,5.050661E5,3.0401045E4,1.6111167E5,2.1005855E5,2.9500756E5,6.045051E3,2.4355994E4,5.8496695E4,1.0261498E5,8.7883805E4,1.2217474E5,1.4221097E5,1.5279658E5,9.940705E3,1.4415289E4,3.6734035E4,2.1762662E4,4.862895E4,5.398603E4,2.8533373E4,5.935043E4,3.0341295E4,9.1833445E4,5.967897E4,8.2532E4,1.3936034E5,1.3436248E4],"tree_param":{"num_deleted":"0","num_feature":"2","num_nodes":"29","size_leaf_vector":"0"}},{"base_weights":[-4.0445954E-4,2.3467028E-1,-1.0754238E-1,4.1869983E-1,1.5483846E-1,-3.1683043E-2,-1.687097E-1,5.69134E-1,3.5519254E-1,2.2260974E-1,1.11026354E-1,9.11831E-3,-7.077697E-2,-1.339454E-1,-1.9343601E-1,1.9732785E-1,1.5200137E-1,1.1536701E-1,9.056035E-2,7.663771E-2,6.1907608E-2,4.178206E-2,2.5099186E-2,9.314302E-3,-3.2748773E-3,-1.5567222E-2,-2.6503665E-2,-3.572507E-2,-4.4400815E-2,-5.30362E-2,-6.3206695E-2],"categories":[],"categories_nodes":[],"categories_segments":[],"categories_sizes":[],"default_left":[0,0,0,0,0,0,0,0,0,0,0,0,0,0,0,0,0,0,0,0,0,0,0,0,0,0,0,0,0,0,0],"id":33,"left_children":[1,3,5,7,9,11,13,15,17,19,21,23,25,27,29,-1,-1,-1,-1,-1,-1,-1,-1,-1,-1,-1,-1,-1,-1,-1,-1],"loss_changes":[1.735143E4,3.1367227E3,2.1867349E3,5.711953E2,4.290918E2,3.411784E2,2.0733691E2,4.2290527E1,3.483203E1,6.321533E0,5.9018555E1,4.6324383E1,2.8537537E1,8.484863E0,2.2726074E1,0E0,0E0,0E0,0E0,0E0,0E0,0E0,0E0,0E0,0E0,0E0,0E0,0E0,0E0,0E0,0E0],"parents":[2147483647,0,0,1,1,2,2,3,3,4,4,5,5,6,6,7,7,8,8,9,9,10,10,11,11,12,12,13,13,14,14],"right_children":[2,4,6,8,10,12,14,16,18,20,22,24,26,28,30,-1,-1,-1,-1,-1,-1,-1,-1,-1,-1,-1,-1,-1,-1,-1,-1],"split_conditions":[1.3E1,6E0,2.1E1,3E0,9E0,1.7E1,2.5E1,2E0,5E0,7E0,1.1E1,1.5E1,1.9E1,2.3E1,2.8E1,1.9732785E-1,1.5200137E-1,1.1536701E-1,9.056035E-2,7.663771E-2,6.1907608E-2,4.178206E-2,2.5099186E-2,9.314302E-3,-3.2748773E-3,-1.5567222E-2,-2.6503665E-2,-3.572507E-2,-4.4400815E-2,-5.30362E-2,-6.3206695E-2],"split_indices":[1,1,1,1,1,1,1,1,1,1,1,1,1,1,1,0,0,0,0,0,0,0,0,0,0,0,0,0,0,0,0],"split_type":[0,0,0,0,0,0,0,0,0,0,0,0,0,0,0,0,0,0,0,0,0,0,0,0,0,0,0,0,0,0,0],"sum_hessian":[6.8921825E5,2.1561827E5,4.736E5,6.503E4,1.5058827E5,2.1180492E5,2.6179506E5,1.9049334E4,4.5980668E4,5.8641645E4,9.1946625E4,1.0296368E5,1.0884125E5,1.0972092E5,1.5207414E5,7.5145474E3,1.1534787E4,2.8995678E4,1.6984988E4,1.830501E4,4.0336633E4,4.4269074E4,4.7677555E4,5.0443875E4,5.251981E4,5.3936535E4,5.490471E4,5.520548E4,5.451544E4,7.899021E4,7.308393E4],"tree_param":{"num_deleted":"0","num_feature":"2","num_nodes":"31","size_leaf_vector":"0"}},{"base_weights":[-0E0,-1.8953472E-1,7.0979916E-2,-4.204103E-1,-1.4612931E-1,-3.277712E-3,1.1173699E-1,-1.8663052E-1,-3.69419E-1,-2.1587029E-1,-1.0587632E-1,-2.8206576E-2,1.9953962E-2,8.47746E-2,1.5281963E-1,-1.2880643E-1,-9.732285E-2,-7.107527E-2,-5.3342625E-2,-3.938876E-2,-2.4590366E-2,-1.1429442E-2,-2.1822255E-3,1.3633493E-3,8.000245E-3,1.9861583E-2,2.9936852E-2,4.0442E-2,5.5573653E-2],"categories":[],"categories_nodes":[],"categories_segments":[],"categories_sizes":[],"default_left":[0,0,0,0,0,0,0,0,0,0,0,0,0,0,0,0,0,0,0,0,0,0,0,0,0,0,0,0,0],"id":34,"left_children":[1,3,5,7,9,11,13,-1,15,17,19,21,23,25,27,-1,-1,-1,-1,-1,-1,-1,-1,-1,-1,-1,-1,-1,-1],"loss_changes":[9.20149E3,1.8372212E3,1.5110864E3,2.475874E2,4.236084E2,1.0224309E2,3.4336133E2,0E0,2.2848145E1,2.3228271E1,4.9306885E1,1.5337944E1,7.61092E0,4.5385376E1,5.6656494E1,0E0,0E0,0E0,0E0,0E0,0E0,0E0,0E0,0E0,0E0,0E0,0E0,0E0,0E0],"parents":[2147483647,0,0,1,1,2,2,3,3,4,4,5,5,6,6,8,8,9,9,10,10,11,11,12,12,13,13,14,14],"right_children":[2,4,6,8,10,12,14,-1,16,18,20,22,24,26,28,-1,-1,-1,-1,-1,-1,-1,-1,-1,-1,-1,-1,-1,-1],"split_conditions":[1.1E1,4E0,1.7E1,2E0,7E0,1.4E1,2.4E1,-1.8663052E-1,3E0,6E0,9E0,1.3E1,1.5E1,2E1,2.8E1,-1.2880643E-1,-9.732285E-2,-7.107527E-2,-5.3342625E-2,-3.938876E-2,-2.4590366E-2,-1.1429442E-2,-2.1822255E-3,1.3633493E-3,8.000245E-3,1.9861583E-2,2.9936852E-2,4.0442E-2,5.5573653E-2],"split_indices":[0,0,0,0,0,0,0,0,0,0,0,0,0,0,0,0,0,0,0,0,0,0,0,0,0,0,0,0,0],"split_type":[0,0,0,0,0,0,0,0,0,0,0,0,0,0,0,0,0,0,0,0,0,0,0,0,0,0,0,0,0],"sum_hessian":[6.837348E5,1.8638978E5,4.9734506E5,2.9298416E4,1.5709136E5,1.75772E5,3.2157306E5,5.69675E3,2.3601666E4,5.6996266E4,1.0009509E5,8.591003E4,8.986196E4,1.9494706E5,1.2662599E5,9.604693E3,1.3996973E4,3.5784742E4,2.1211521E4,4.7417793E4,5.2677305E4,5.6588797E4,2.9321234E4,2.9711178E4,6.015078E4,8.876727E4,1.0617978E5,8.247818E4,4.4147816E4],"tree_param":{"num_deleted":"0","num_feature":"2","num_nodes":"29","size_leaf_vector":"0"}},{"base_weights":[-1.4715483E-4,2.254726E-1,-8.5629895E-2,4.1247496E-1,1.6373177E-1,-1.0224439E-2,-1.3961849E-1,5.1784366E-1,1.0273264E-1,2.2931784E-1,1.2275471E-1,2.7998917E-2,-4.63187E-2,-1.0256952E-1,-1.6209663E-1,1.8192928E-1,1.3677835E-1,7.9997055E-2,6.335367E-2,4.5144938E-2,2.8823972E-2,1.5017877E-2,1.7823912E-3,-8.263452E-3,-1.9093022E-2,-2.6482375E-2,-3.4779426E-2,-4.2798184E-2,-5.3208936E-2],"categories":[],"categories_nodes":[],"categories_segments":[],"categories_sizes":[],"default_left":[0,0,0,0,0,0,0,0,0,0,0,0,0,0,0,0,0,0,0,0,0,0,0,0,0,0,0,0,0],"id":35,"left_children":[1,3,5,7,9,11,13,15,-1,17,19,21,23,25,27,-1,-1,-1,-1,-1,-1,-1,-1,-1,-1,-1,-1,-1,-1],"loss_changes":[1.3043984E4,2.113667E3,1.9905637E3,2.9204395E2,3.5689014E2,2.8417773E2,2.2360986E2,4.119922E1,0E0,1.0234131E1,5.0726074E1,4.513231E1,2.9647812E1,9.743286E0,3.5186035E1,0E0,0E0,0E0,0E0,0E0,0E0,0E0,0E0,0E0,0E0,0E0,0E0,0E0,0E0],"parents":[2147483647,0,0,1,1,2,2,3,3,4,4,5,5,6,6,7,7,9,9,10,10,11,11,12,12,13,13,14,14],"right_children":[2,4,6,8,10,12,14,16,-1,18,20,22,24,26,28,-1,-1,-1,-1,-1,-1,-1,-1,-1,-1,-1,-1,-1,-1],"split_conditions":[1.2E1,5E0,2E1,3E0,8E0,1.6E1,2.4E1,2E0,1.0273264E-1,6E0,1E1,1.4E1,1.8E1,2.2E1,2.7E1,1.8192928E-1,1.3677835E-1,7.9997055E-2,6.335367E-2,4.5144938E-2,2.8823972E-2,1.5017877E-2,1.7823912E-3,-8.263452E-3,-1.9093022E-2,-2.6482375E-2,-3.4779426E-2,-4.2798184E-2,-5.3208936E-2],"split_indices":[1,1,1,1,1,1,1,1,0,1,1,1,1,1,1,0,0,0,0,0,0,0,0,0,0,0,0,0,0],"split_type":[0,0,0,0,0,0,0,0,0,0,0,0,0,0,0,0,0,0,0,0,0,0,0,0,0,0,0,0,0],"sum_hessian":[6.767137E5,1.8576906E5,4.9094462E5,4.5891633E4,1.3987744E5,2.0526033E5,2.8568428E5,1.8013145E4,2.7878488E4,5.327925E4,8.659819E4,9.896344E4,1.0629689E5,1.0878673E5,1.7689756E5,7.048549E3,1.0964596E4,1.6442834E4,3.6836418E4,4.1465973E4,4.5132215E4,4.8253754E4,5.0709688E4,5.251181E4,5.3785082E4,5.4514008E4,5.427272E4,7.938159E4,9.751597E4],"tree_param":{"num_deleted":"0","num_feature":"2","num_nodes":"29","size_leaf_vector":"0"}},{"base_weights":[3.4507422E-5,-2.0517406E-1,6.1848097E-2,-4.0391946E-1,-1.6062091E-1,-1.0353151E-2,1.0719244E-1,-1.7667577E-1,-3.57999E-1,-2.1281669E-1,-1.193409E-1,-4.5768414E-2,1.3902815E-2,7.290695E-2,1.3470526E-1,-1.24449305E-1,-9.456867E-2,-7.789168E-2,-5.7624415E-2,-4.3797407E-2,-3.1824294E-2,-1.691977E-2,-7.082585E-3,-0E0,8.441186E-3,1.767308E-2,2.4636494E-2,3.4310617E-2,4.7322508E-2],"categories":[],"categories_nodes":[],"categories_segments":[],"categories_sizes":[],"default_left":[0,0,0,0,0,0,0,0,0,0,0,0,0,0,0,0,0,0,0,0,0,0,0,0,0,0,0,0,0],"id":36,"left_children":[1,3,5,7,9,11,13,-1,15,17,19,21,23,25,27,-1,-1,-1,-1,-1,-1,-1,-1,-1,-1,-1,-1,-1,-1],"loss_changes":[8.516928E3,1.345227E3,1.6967775E3,1.8849854E2,2.5598828E2,1.7254243E2,2.8857812E2,0E0,1.6009521E1,2.9514404E1,1.1667908E1,1.4933914E1,2.4206348E1,1.0742371E1,6.7486084E1,0E0,0E0,0E0,0E0,0E0,0E0,0E0,0E0,0E0,0E0,0E0,0E0,0E0,0E0],"parents":[2147483647,0,0,1,1,2,2,3,3,4,4,5,5,6,6,8,8,9,9,10,10,11,11,12,12,13,13,14,14],"right_children":[2,4,6,8,10,12,14,-1,16,18,20,22,24,26,28,-1,-1,-1,-1,-1,-1,-1,-1,-1,-1,-1,-1,-1,-1],"split_conditions":[1E1,4E0,1.7E1,2E0,7E0,1.3E1,2.2E1,-1.7667577E-1,3E0,5E0,8E0,1.2E1,1.5E1,1.9E1,2.6E1,-1.24449305E-1,-9.456867E-2,-7.789168E-2,-5.7624415E-2,-4.3797407E-2,-3.1824294E-2,-1.691977E-2,-7.082585E-3,-0E0,8.441186E-3,1.767308E-2,2.4636494E-2,3.4310617E-2,4.7322508E-2],"split_indices":[0,0,0,0,0,0,0,0,0,0,0,0,0,0,0,0,0,0,0,0,0,0,0,0,0,0,0,0,0],"split_type":[0,0,0,0,0,0,0,0,0,0,0,0,0,0,0,0,0,0,0,0,0,0,0,0,0,0,0,0,0],"sum_hessian":[6.7204275E5,1.5537006E5,5.166727E5,2.8228342E4,1.2714173E5,1.9885233E5,3.1782038E5,5.3775674E3,2.2850773E4,5.5568016E4,7.157371E4,8.173682E4,1.1711551E5,1.4236992E5,1.7545044E5,9.266953E3,1.3583821E4,1.6253007E4,3.9315008E4,2.2423922E4,4.914979E4,5.3589785E4,2.8147037E4,5.794855E4,5.9166953E4,5.88485E4,8.352143E4,9.443369E4,8.101675E4],"tree_param":{"num_deleted":"0","num_feature":"2","num_nodes":"29","size_leaf_vector":"0"}},{"base_weights":[-6.9000336E-5,2.0237783E-1,-7.569745E-2,4.2480463E-1,1.5819778E-1,-9.361589E-4,-1.1798359E-1,1.6853124E-1,1.1486935E-1,2.2030038E-1,1.090852E-1,3.356929E-2,-2.5510482E-2,-8.56573E-2,-1.4248222E-1,7.6652884E-2,5.672554E-2,4.01392E-2,2.5565702E-2,1.3145734E-2,3.5079247E-3,-2.7801455E-3,-1.2075887E-2,-2.0298745E-2,-2.9079434E-2,-4.086036E-2,-5.449841E-2],"categories":[],"categories_nodes":[],"categories_segments":[],"categories_sizes":[],"default_left":[0,0,0,0,0,0,0,0,0,0,0,0,0,0,0,0,0,0,0,0,0,0,0,0,0,0,0],"id":37,"left_children":[1,3,5,7,9,11,13,-1,-1,15,17,19,21,23,25,-1,-1,-1,-1,-1,-1,-1,-1,-1,-1,-1,-1],"loss_changes":[1.0182958E4,1.7452627E3,1.5259592E3,1.1961621E2,4.4290625E2,1.484476E2,2.324961E2,0E0,0E0,4.8728516E1,3.8197693E1,1.3172897E1,2.2101128E1,1.8338684E1,2.5857422E1,0E0,0E0,0E0,0E0,0E0,0E0,0E0,0E0,0E0,0E0,0E0,0E0],"parents":[2147483647,0,0,1,1,2,2,3,3,4,4,5,5,6,6,9,9,10,10,11,11,12,12,13,13,14,14],"right_children":[2,4,6,8,10,12,14,-1,-1,16,18,20,22,24,26,-1,-1,-1,-1,-1,-1,-1,-1,-1,-1,-1,-1],"split_conditions":[1.2E1,4E0,1.9E1,2E0,8E0,1.5E1,2.4E1,1.6853124E-1,1.1486935E-1,6E0,1E1,1.4E1,1.7E1,2.1E1,3E1,7.6652884E-2,5.672554E-2,4.01392E-2,2.5565702E-2,1.3145734E-2,3.5079247E-3,-2.7801455E-3,-1.2075887E-2,-2.0298745E-2,-2.9079434E-2,-4.086036E-2,-5.449841E-2],"split_indices":[1,1,1,1,1,1,1,0,0,1,1,1,1,1,1,0,0,0,0,0,0,0,0,0,0,0,0],"split_type":[0,0,0,0,0,0,0,0,0,0,0,0,0,0,0,0,0,0,0,0,0,0,0,0,0,0,0],"sum_hessian":[6.65531E5,1.8081064E5,4.8472038E5,2.9758771E4,1.5105188E5,1.755783E5,3.0914206E5,6.667554E3,2.3091219E4,6.621757E4,8.48343E4,7.211792E4,1.0346038E5,1.3423081E5,1.7491125E5,3.0302133E4,3.5915438E4,4.056496E4,4.426934E4,4.7427203E4,2.4690717E4,5.0967934E4,5.249245E4,5.3551805E4,8.067901E4,1.519357E5,2.2975545E4],"tree_param":{"num_deleted":"0","num_feature":"2","num_nodes":"27","size_leaf_vector":"0"}},{"base_weights":[2.7059856E-5,1.5905029E-1,-4.8711192E-2,3.148616E-1,1.2373222E-1,1.1056625E-2,-7.95372E-2,1.2892538E-1,8.4127545E-2,5.1956933E-2,9.420163E-2,3.6675952E-2,-6.003069E-3,-5.9350193E-2,-1.0481682E-1,3.4091264E-2,2.2620495E-2,1.3297302E-2,5.9626196E-3,1.4418609E-3,-5.2387835E-3,-1.4211195E-2,-2.2404868E-2,-2.8989216E-2,-3.646821E-2],"categories":[],"categories_nodes":[],"categories_segments":[],"categories_sizes":[],"default_left":[0,0,0,0,0,0,0,0,0,0,0,0,0,0,0,0,0,0,0,0,0,0,0,0,0],"id":38,"left_children":[1,3,5,7,9,11,13,-1,-1,-1,15,17,19,21,23,-1,-1,-1,-1,-1,-1,-1,-1,-1,-1],"loss_changes":[5.1329272E3,8.316599E2,9.360668E2,7.406592E1,1.7103247E2,7.6655685E1,1.6181201E2,0E0,0E0,0E0,1.9091125E1,5.508934E0,1.3286404E1,2.77818E1,8.398926E0,0E0,0E0,0E0,0E0,0E0,0E0,0E0,0E0,0E0,0E0],"parents":[2147483647,0,0,1,1,2,2,3,3,4,4,5,5,6,6,10,10,11,11,12,12,13,13,14,14],"right_children":[2,4,6,8,10,12,14,-1,-1,-1,16,18,20,22,24,-1,-1,-1,-1,-1,-1,-1,-1,-1,-1],"split_conditions":[1.1E1,4E0,1.8E1,2E0,7E0,1.4E1,2.5E1,1.2892538E-1,8.4127545E-2,5.1956933E-2,9E0,1.3E1,1.6E1,2.2E1,2.9E1,3.4091264E-2,2.2620495E-2,1.3297302E-2,5.9626196E-3,1.4418609E-3,-5.2387835E-3,-1.4211195E-2,-2.2404868E-2,-2.8989216E-2,-3.646821E-2],"split_indices":[1,1,1,1,1,1,1,0,0,0,1,1,1,1,1,0,0,0,0,0,0,0,0,0,0],"split_type":[0,0,0,0,0,0,0,0,0,0,0,0,0,0,0,0,0,0,0,0,0,0,0,0,0],"sum_hessian":[6.6149875E5,1.5543881E5,5.0605994E5,2.8439146E4,1.2699967E5,1.7159917E5,3.3446078E5,6.1945044E3,2.224464E4,4.6795004E4,8.0204664E4,6.985662E4,1.0174255E5,1.8715077E5,1.4731E5,3.8020934E4,4.218373E4,4.579365E4,2.4062973E4,4.99321E4,5.181044E4,1.0704286E5,8.010791E4,1.0110874E5,4.620127E4],"tree_param":{"num_deleted":"0","num_feature":"2","num_nodes":"25","size_leaf_vector":"0"}},{"base_weights":[1.5705697E-4,1.1368921E-1,-3.4218296E-2,2.0424093E-1,7.986322E-2,3.659246E-3,-5.8808733E-2,8.205802E-2,4.7968406E-2,9.517357E-2,1.5909404E-2,2.1505926E-2,-1.2094311E-2,-4.644088E-2,-2.3262328E-2,3.328488E-2,2.4066808E-2,9.32944E-3,3.4195995E-3,-0E0,-4.8037437E-3,-1.0898546E-2,-1.6083945E-2],"categories":[],"categories_nodes":[],"categories_segments":[],"categories_sizes":[],"default_left":[0,0,0,0,0,0,0,0,0,0,0,0,0,0,0,0,0,0,0,0,0,0,0],"id":39,"left_children":[1,3,5,7,9,11,13,-1,-1,15,-1,17,19,21,-1,-1,-1,-1,-1,-1,-1,-1,-1],"loss_changes":[2.574436E3,4.545713E2,4.7347266E2,1.0342297E2,3.8056763E1,5.617073E1,6.446277E1,0E0,0E0,6.2059326E0,0E0,6.8601E0,4.9303627E0,8.68573E0,0E0,0E0,0E0,0E0,0E0,0E0,0E0,0E0,0E0],"parents":[2147483647,0,0,1,1,2,2,3,3,4,4,5,5,6,6,9,9,11,11,12,12,13,13],"right_children":[2,4,6,8,10,12,14,-1,-1,16,-1,18,20,22,-1,-1,-1,-1,-1,-1,-1,-1,-1],"split_conditions":[1.1E1,5E0,1.9E1,3E0,9E0,1.5E1,2.6E1,8.205802E-2,4.7968406E-2,7E0,1.5909404E-2,1.3E1,1.6E1,2.2E1,-2.3262328E-2,3.328488E-2,2.4066808E-2,9.32944E-3,3.4195995E-3,-0E0,-4.8037437E-3,-1.0898546E-2,-1.6083945E-2],"split_indices":[1,1,1,1,1,1,1,0,0,1,0,1,1,1,0,0,0,0,0,0,0,0,0],"split_type":[0,0,0,0,0,0,0,0,0,0,0,0,0,0,0,0,0,0,0,0,0,0,0],"sum_hessian":[6.585525E5,1.5341958E5,5.0513294E5,4.1288914E4,1.1213066E5,1.9798075E5,3.071522E5,1.5636526E4,2.5652389E4,7.011061E4,4.2020047E4,9.4430766E4,1.03549984E5,1.8674283E5,1.2040935E5,3.2353793E4,3.775682E4,4.570775E4,4.872302E4,2.5247299E4,7.830269E4,8.061522E4,1.0612761E5],"tree_param":{"num_deleted":"0","num_feature":"2","num_nodes":"23","size_leaf_vector":"0"}},{"base_weights":[2.0715533E-4,7.402109E-2,-2.638852E-2,1.4718673E-1,5.15479E-2,-2.4138351E-3,-4.3521263E-2,7.561478E-2,3.8608667E-2,2.0216295E-2,1.00677665E-2,2.597324E-3,-3.950575E-3,-1.0801275E-2,-1.731259E-2],"categories":[],"categories_nodes":[],"categories_segments":[],"categories_sizes":[],"default_left":[0,0,0,0,0,0,0,0,0,0,0,0,0,0,0],"id":40,"left_children":[1,3,5,7,9,11,13,-1,-1,-1,-1,-1,-1,-1,-1],"loss_changes":[1.2912491E3,2.7603827E2,1.9551398E2,5.778302E1,3.272641E1,2.4321795E1,2.4779114E1,0E0,0E0,0E0,0E0,0E0,0E0,0E0,0E0],"parents":[2147483647,0,0,1,1,2,2,3,3,4,4,5,5,6,6],"right_children":[2,4,6,8,10,12,14,-1,-1,-1,-1,-1,-1,-1,-1],"split_conditions":[1.2E1,5E0,2E1,2E0,9E0,1.6E1,2.7E1,7.561478E-2,3.8608667E-2,2.0216295E-2,1.00677665E-2,2.597324E-3,-3.950575E-3,-1.0801275E-2,-1.731259E-2],"split_indices":[1,1,1,1,1,1,1,0,0,0,0,0,0,0,0],"split_type":[0,0,0,0,0,0,0,0,0,0,0,0,0,0,0],"sum_hessian":[6.564377E5,1.7440923E5,4.820285E5,4.0416902E4,1.3399233E5,2.0221375E5,2.7981475E5,5.6192373E3,3.4797664E4,6.965451E4,6.4337824E4,9.7165195E4,1.0504855E5,1.8539473E5,9.442001E4],"tree_param":{"num_deleted":"0","num_feature":"2","num_nodes":"15","size_leaf_vector":"0"}},{"base_weights":[1.9499603E-4,-2.4838506E-1,9.1054626E-2,-4.5637873E-1,-1.787196E-1,9.5638465E-3,1.4630172E-1,-5.9763956E-1,-1.1483388E-1,-2.417276E-1,-1.261648E-1,-3.6789622E-2,4.2927615E-2,1.1397675E-1,1.7515972E-1,-2.0813723E-1,-1.6031581E-1,-8.7204985E-2,-6.573745E-2,-4.318414E-2,-2.7232328E-2,-1.8850638E-2,-7.000044E-3,6.4120037E-3,1.896796E-2,3.0561708E-2,3.973728E-2,4.7533777E-2,5.938991E-2],"categories":[],"categories_nodes":[],"categories_segments":[],"categories_sizes":[],"default_left":[0,0,0,0,0,0,0,0,0,0,0,0,0,0,0,0,0,0,0,0,0,0,0,0,0,0,0,0,0],"id":41,"left_children":[1,3,5,7,9,11,13,15,-1,17,19,21,23,25,27,-1,-1,-1,-1,-1,-1,-1,-1,-1,-1,-1,-1,-1,-1],"loss_changes":[1.4783725E4,2.5035537E3,2.151622E3,4.017207E2,4.1522266E2,3.0073828E2,2.5072852E2,2.296582E1,0E0,3.8020752E1,3.2695557E1,2.360096E1,4.514514E1,1.7660156E1,3.789502E1,0E0,0E0,0E0,0E0,0E0,0E0,0E0,0E0,0E0,0E0,0E0,0E0,0E0,0E0],"parents":[2147483647,0,0,1,1,2,2,3,3,4,4,5,5,6,6,7,7,9,9,10,10,11,11,12,12,13,13,14,14],"right_children":[2,4,6,8,10,12,14,16,-1,18,20,22,24,26,28,-1,-1,-1,-1,-1,-1,-1,-1,-1,-1,-1,-1,-1,-1],"split_conditions":[1.1E1,5E0,1.8E1,3E0,8E0,1.4E1,2.3E1,2E0,-1.1483388E-1,6E0,1E1,1.2E1,1.6E1,2.1E1,2.7E1,-2.0813723E-1,-1.6031581E-1,-8.7204985E-2,-6.573745E-2,-4.318414E-2,-2.7232328E-2,-1.8850638E-2,-7.000044E-3,6.4120037E-3,1.896796E-2,3.0561708E-2,3.973728E-2,4.7533777E-2,5.938991E-2],"split_indices":[0,0,0,0,0,0,0,0,0,0,0,0,0,0,0,0,0,0,0,0,0,0,0,0,0,0,0,0,0],"split_type":[0,0,0,0,0,0,0,0,0,0,0,0,0,0,0,0,0,0,0,0,0,0,0,0,0,0,0,0,0],"sum_hessian":[6.5493025E5,1.7514919E5,4.7978106E5,4.374973E4,1.3139945E5,1.942444E5,2.8553666E5,1.47328E4,2.9016932E4,5.9288176E4,7.211127E4,8.0618984E4,1.1362542E5,1.3556288E5,1.4997377E5,5.5039546E3,9.228846E3,1.7969184E4,4.1318992E4,4.697808E4,2.5133197E4,2.6094338E4,5.452465E4,5.6399734E4,5.722569E4,8.3681586E4,5.18813E4,8.79179E4,6.2055875E4],"tree_param":{"num_deleted":"0","num_feature":"2","num_nodes":"29","size_leaf_vector":"0"}},{"base_weights":[-0E0,9.781324E-2,-4.20339E-2,1.8412E-1,6.316813E-2,-1.28958905E-2,-6.5297596E-2,8.019358E-2,4.539022E-2,8.3688E-2,1.1829935E-2,2.7906268E-3,-8.42857E-3,-1.631023E-2,-2.3065828E-2,2.943361E-2,2.0898707E-2,3.5610364E-3,-1.4376056E-3],"categories":[],"categories_nodes":[],"categories_segments":[],"categories_sizes":[],"default_left":[0,0,0,0,0,0,0,0,0,0,0,0,0,0,0,0,0,0,0],"id":42,"left_children":[1,3,5,7,9,11,13,-1,-1,15,-1,17,-1,-1,-1,-1,-1,-1,-1],"loss_changes":[2.6588203E3,5.674917E2,3.0279968E2,1.2806177E2,6.1078125E1,4.9554535E1,2.4678833E1,0E0,0E0,5.77594E0,0E0,7.109501E0,0E0,0E0,0E0,0E0,0E0,0E0,0E0],"parents":[2147483647,0,0,1,1,2,2,3,3,4,4,5,5,6,6,9,9,11,11],"right_children":[2,4,6,8,10,12,14,-1,-1,16,-1,18,-1,-1,-1,-1,-1,-1,-1],"split_conditions":[1.3E1,6E0,2.1E1,3E0,1E1,1.7E1,2.6E1,8.019358E-2,4.539022E-2,8E0,1.1829935E-2,1.5E1,-8.42857E-3,-1.631023E-2,-2.3065828E-2,2.943361E-2,2.0898707E-2,3.5610364E-3,-1.4376056E-3],"split_indices":[1,1,1,1,1,1,1,0,0,1,0,1,0,0,0,0,0,0,0],"split_type":[0,0,0,0,0,0,0,0,0,0,0,0,0,0,0,0,0,0,0],"sum_hessian":[6.471883E5,1.9425816E5,4.529302E5,5.5195227E4,1.3906292E5,2.0210911E5,2.5082108E5,1.5147367E4,4.0047863E4,7.336159E4,6.5701336E4,9.771255E4,1.04396555E5,1.314774E5,1.1934367E5,3.426649E4,3.90951E4,4.7707914E4,5.0004637E4],"tree_param":{"num_deleted":"0","num_feature":"2","num_nodes":"19","size_leaf_vector":"0"}},{"base_weights":[-0E0,8.3654635E-2,-2.4870243E-2,1.7009102E-1,6.476814E-2,5.8311145E-3,-4.0706117E-2,7.394363E-2,4.4155084E-2,2.7009785E-2,1.486985E-2,5.8210264E-3,-8.688183E-4,-7.764351E-3,-5.0359193E-2,-1.4189045E-2,-2.1626951E-2],"categories":[],"categories_nodes":[],"categories_segments":[],"categories_sizes":[],"default_left":[0,0,0,0,0,0,0,0,0,0,0,0,0,0,0,0,0],"id":43,"left_children":[1,3,5,7,9,11,13,-1,-1,-1,-1,-1,-1,-1,15,-1,-1],"loss_changes":[1.3443569E3,2.2920459E2,2.4350775E2,2.4308167E1,3.9360535E1,2.0785425E1,4.2967834E1,0E0,0E0,0E0,0E0,0E0,0E0,0E0,6.6644287E0,0E0,0E0],"parents":[2147483647,0,0,1,1,2,2,3,3,4,4,5,5,6,6,14,14],"right_children":[2,4,6,8,10,12,14,-1,-1,-1,-1,-1,-1,-1,16,-1,-1],"split_conditions":[1.1E1,4E0,1.8E1,2E0,7E0,1.4E1,2.3E1,7.394363E-2,4.4155084E-2,2.7009785E-2,1.486985E-2,5.8210264E-3,-8.688183E-4,-7.764351E-3,3E1,-1.4189045E-2,-2.1626951E-2],"split_indices":[1,1,1,1,1,1,1,0,0,0,0,0,0,0,1,0,0],"split_type":[0,0,0,0,0,0,0,0,0,0,0,0,0,0,0,0,0],"sum_hessian":[6.451579E5,1.481764E5,4.969815E5,2.605703E4,1.22119375E5,1.6795466E5,3.2902684E5,5.465581E3,2.059145E4,4.4540383E4,7.757899E4,6.815228E4,9.9802375E4,1.319613E5,1.9706555E5,1.7490492E5,2.2160627E4],"tree_param":{"num_deleted":"0","num_feature":"2","num_nodes":"17","size_leaf_vector":"0"}},{"base_weights":[4.895852E-6,-2.199788E-1,7.92756E-2,-4.1086158E-1,-1.573421E-1,-5.377218E-4,1.2149397E-1,-5.4620504E-1,-3.4170014E-1,-2.1373275E-1,-1.1050427E-1,-3.189648E-2,2.8462801E-2,8.77372E-2,1.4799385E-1,-1.9154233E-1,-1.458047E-1,-1.1505305E-1,-9.0862125E-2,-7.109366E-2,-5.1085517E-2,-4.3438215E-2,-2.8043717E-2,-1.3242724E-2,-1.9163417E-3,2.6661484E-3,1.1133215E-2,2.0929825E-2,2.9881516E-2,4.2799357E-2,6.295024E-2],"categories":[],"categories_nodes":[],"categories_segments":[],"categories_sizes":[],"default_left":[0,0,0,0,0,0,0,0,0,0,0,0,0,0,0,0,0,0,0,0,0,0,0,0,0,0,0,0,0,0,0],"id":44,"left_children":[1,3,5,7,9,11,13,15,17,19,21,23,25,27,29,-1,-1,-1,-1,-1,-1,-1,-1,-1,-1,-1,-1,-1,-1,-1,-1],"loss_changes":[1.1217257E4,2.0057666E3,1.6015657E3,3.43813E2,3.2176367E2,1.4871606E2,2.646045E2,1.6172852E1,8.249023E0,3.63125E1,2.839508E1,2.2063385E1,1.1728973E1,2.0120117E1,3.7885498E1,0E0,0E0,0E0,0E0,0E0,0E0,0E0,0E0,0E0,0E0,0E0,0E0,0E0,0E0,0E0,0E0],"parents":[2147483647,0,0,1,1,2,2,3,3,4,4,5,5,6,6,7,7,8,8,9,9,10,10,11,11,12,12,13,13,14,14],"right_children":[2,4,6,8,10,12,14,16,18,20,22,24,26,28,30,-1,-1,-1,-1,-1,-1,-1,-1,-1,-1,-1,-1,-1,-1,-1,-1],"split_conditions":[1.1E1,5E0,1.7E1,3E0,8E0,1.4E1,2.2E1,2E0,4E0,7E0,9E0,1.3E1,1.5E1,1.9E1,3E1,-1.9154233E-1,-1.458047E-1,-1.1505305E-1,-9.0862125E-2,-7.109366E-2,-5.1085517E-2,-4.3438215E-2,-2.8043717E-2,-1.3242724E-2,-1.9163417E-3,2.6661484E-3,1.1133215E-2,2.0929825E-2,2.9881516E-2,4.2799357E-2,6.295024E-2],"split_indices":[0,0,0,0,0,0,0,0,0,0,0,0,0,0,0,0,0,0,0,0,0,0,0,0,0,0,0,0,0,0,0],"split_type":[0,0,0,0,0,0,0,0,0,0,0,0,0,0,0,0,0,0,0,0,0,0,0,0,0,0,0,0,0,0,0],"sum_hessian":[6.4368944E5,1.7032864E5,4.7336078E5,4.1868656E4,1.2845998E5,1.6332278E5,3.10038E5,1.3893475E4,2.7975182E4,5.776161E4,7.069837E4,7.9365484E4,8.39573E4,1.372474E5,1.727906E5,5.1275415E3,8.765934E3,1.279667E4,1.5178513E4,3.681663E4,2.094498E4,2.2401732E4,4.829664E4,5.2192094E4,2.7173389E4,2.763899E4,5.6318305E4,5.6399484E4,8.084792E4,1.598877E5,1.2902883E4],"tree_param":{"num_deleted":"0","num_feature":"2","num_nodes":"31","size_leaf_vector":"0"}},{"base_weights":[-1.0480327E-4,1.0275224E-1,-3.689434E-2,1.9531864E-1,7.427912E-2,-7.936511E-4,-5.7035338E-2,9.097666E-2,5.2791286E-2,9.733717E-2,1.4529792E-2,4.866119E-3,-3.9273826E-3,-1.17189055E-2,-6.6353E-2,3.4090057E-2,2.4571123E-2,-1.7924748E-2,-2.3324993E-2],"categories":[],"categories_nodes":[],"categories_segments":[],"categories_sizes":[],"default_left":[0,0,0,0,0,0,0,0,0,0,0,0,0,0,0,0,0,0,0],"id":45,"left_children":[1,3,5,7,9,11,13,-1,-1,15,-1,-1,-1,-1,17,-1,-1,-1,-1],"loss_changes":[2.4072737E3,4.2678503E2,3.3835797E2,5.5406372E1,6.871326E1,3.5222443E1,4.4626648E1,0E0,0E0,6.2373047E0,0E0,0E0,0E0,0E0,7.3166504E0,0E0,0E0,0E0,0E0],"parents":[2147483647,0,0,1,1,2,2,3,3,4,4,5,5,6,6,9,9,14,14],"right_children":[2,4,6,8,10,12,14,-1,-1,16,-1,-1,-1,-1,18,-1,-1,-1,-1],"split_conditions":[1.2E1,5E0,1.9E1,2E0,9E0,1.5E1,2.3E1,9.097666E-2,5.2791286E-2,7E0,1.4529792E-2,4.866119E-3,-3.9273826E-3,-1.17189055E-2,2.8E1,3.4090057E-2,2.4571123E-2,-1.7924748E-2,-2.3324993E-2],"split_indices":[1,1,1,1,1,1,1,0,0,1,0,0,0,0,1,0,0,0,0],"split_type":[0,0,0,0,0,0,0,0,0,0,0,0,0,0,0,0,0,0,0],"sum_hessian":[6.370992E5,1.6745506E5,4.6964412E5,3.8944496E4,1.2851057E5,1.6914711E5,3.00497E5,5.4935215E3,3.3450973E4,6.681353E4,6.1697043E4,6.912278E4,1.00024336E5,1.0457946E5,1.9591755E5,3.0793705E4,3.6019824E4,1.2704582E5,6.887172E4],"tree_param":{"num_deleted":"0","num_feature":"2","num_nodes":"19","size_leaf_vector":"0"}},{"base_weights":[-0E0,8.044123E-2,-2.3772316E-2,1.6308814E-1,6.2463667E-2,5.1564053E-3,-3.8595088E-2,5.68788E-2,3.717326E-2,2.384117E-2,1.3177583E-2,5.516939E-3,-9.91781E-4,-2.9333552E-2,-1.4993091E-2,-5.7050036E-3,-9.898145E-3],"categories":[],"categories_nodes":[],"categories_segments":[],"categories_sizes":[],"default_left":[0,0,0,0,0,0,0,0,0,0,0,0,0,0,0,0,0],"id":46,"left_children":[1,3,5,7,9,11,13,-1,-1,-1,-1,-1,-1,15,-1,-1,-1],"loss_changes":[1.2132705E3,2.0273773E2,2.1217007E2,9.331604E0,3.0961945E1,1.9289234E1,3.0039825E1,0E0,0E0,0E0,0E0,0E0,0E0,4.069168E0,0E0,0E0,0E0],"parents":[2147483647,0,0,1,1,2,2,3,3,4,4,5,5,6,6,13,13],"right_children":[2,4,6,8,10,12,14,-1,-1,-1,-1,-1,-1,16,-1,-1,-1],"split_conditions":[1.1E1,4E0,1.8E1,3E0,8E0,1.4E1,2.5E1,5.68788E-2,3.717326E-2,2.384117E-2,1.3177583E-2,5.516939E-3,-9.91781E-4,2E1,-1.4993091E-2,-5.7050036E-3,-9.898145E-3],"split_indices":[1,1,1,1,1,1,1,0,0,0,0,0,0,1,0,0,0],"split_type":[0,0,0,0,0,0,0,0,0,0,0,0,0,0,0,0,0],"sum_hessian":[6.3523675E5,1.4465383E5,4.905829E5,2.5305943E4,1.19347875E5,1.6497283E5,3.256101E5,1.4269403E4,1.1036541E4,6.072436E4,5.862352E4,6.6835625E4,9.8137195E4,1.8214478E5,1.4346533E5,5.1564004E4,1.3058077E5],"tree_param":{"num_deleted":"0","num_feature":"2","num_nodes":"17","size_leaf_vector":"0"}},{"base_weights":[-0E0,4.7764923E-2,-2.00286E-2,9.282416E-2,2.999084E-2,-6.3343924E-3,-3.0818053E-2,4.087049E-2,2.2661334E-2,1.2003675E-2,5.4147253E-3,1.0664501E-3,-3.6780557E-3,-7.823236E-3,-1.1447981E-2],"categories":[],"categories_nodes":[],"categories_segments":[],"categories_sizes":[],"default_left":[0,0,0,0,0,0,0,0,0,0,0,0,0,0,0],"id":47,"left_children":[1,3,5,7,9,11,13,-1,-1,-1,-1,-1,-1,-1,-1],"loss_changes":[6.067617E2,1.4349182E2,6.3959946E1,2.7701141E1,1.3054123E1,1.2129139E1,5.1448975E0,0E0,0E0,0E0,0E0,0E0,0E0,0E0,0E0],"parents":[2147483647,0,0,1,1,2,2,3,3,4,4,5,5,6,6],"right_children":[2,4,6,8,10,12,14,-1,-1,-1,-1,-1,-1,-1,-1],"split_conditions":[1.3E1,6E0,2.1E1,3E0,1E1,1.6E1,2.7E1,4.087049E-2,2.2661334E-2,1.2003675E-2,5.4147253E-3,1.0664501E-3,-3.6780557E-3,-7.823236E-3,-1.1447981E-2],"split_indices":[1,1,1,1,1,1,1,0,0,0,0,0,0,0,0],"split_type":[0,0,0,0,0,0,0,0,0,0,0,0,0,0,0],"sum_hessian":[6.3391206E5,1.8744925E5,4.4646278E5,5.216457E4,1.3528469E5,1.9895327E5,2.4750952E5,1.3964955E4,3.8199617E4,7.109689E4,6.418779E4,7.113226E4,1.2782101E5,1.5487006E5,9.2639445E4],"tree_param":{"num_deleted":"0","num_feature":"2","num_nodes":"15","size_leaf_vector":"0"}},{"base_weights":[-0E0,4.0659014E-2,-1.1779013E-2,8.557912E-2,3.0885102E-2,2.7361615E-3,-1.9310737E-2,3.9895885E-2,2.116647E-2,1.293703E-2,6.9633857E-3,2.6935313E-3,-2.876133E-4,-3.7331146E-3,-7.0884433E-3],"categories":[],"categories_nodes":[],"categories_segments":[],"categories_sizes":[],"default_left":[0,0,0,0,0,0,0,0,0,0,0,0,0,0,0],"id":48,"left_children":[1,3,5,7,9,11,13,-1,-1,-1,-1,-1,-1,-1,-1],"loss_changes":[3.0451196E2,5.6529907E1,5.4450844E1,6.509262E0,7.546425E0,4.2365236E0,7.6866455E0,0E0,0E0,0E0,0E0,0E0,0E0,0E0,0E0],"parents":[2147483647,0,0,1,1,2,2,3,3,4,4,5,5,6,6],"right_children":[2,4,6,8,10,12,14,-1,-1,-1,-1,-1,-1,-1,-1],"split_conditions":[1.1E1,4E0,1.8E1,2E0,7E0,1.4E1,2.3E1,3.9895885E-2,2.116647E-2,1.293703E-2,6.9633857E-3,2.6935313E-3,-2.876133E-4,-3.7331146E-3,-7.0884433E-3],"split_indices":[1,1,1,1,1,1,1,0,0,0,0,0,0,0,0],"split_type":[0,0,0,0,0,0,0,0,0,0,0,0,0,0,0],"sum_hessian":[6.3296425E5,1.430852E5,4.8987906E5,2.4581057E4,1.1850415E5,1.6490473E5,3.2497434E5,5.0488896E3,1.9532166E4,4.295611E4,7.554804E4,6.6749266E4,9.815547E4,1.3027587E5,1.9469847E5],"tree_param":{"num_deleted":"0","num_feature":"2","num_nodes":"15","size_leaf_vector":"0"}},{"base_weights":[2.4624604E-5,-2.4145776E-1,6.975045E-2,-4.659208E-1,-1.9109295E-1,-9.759331E-3,1.17695756E-1,-5.424762E-1,-1.136294E-1,-2.5547832E-1,-1.4044741E-1,-5.354703E-2,1.990603E-2,9.080585E-2,1.4677118E-1,-1.891732E-1,-1.4541394E-1,-8.477455E-2,-6.2071554E-2,-4.6988875E-2,-3.253917E-2,-1.9998804E-2,-7.985767E-3,2.5819193E-4,1.1226232E-2,2.2277523E-2,3.234239E-2,3.8334437E-2,4.860786E-2],"categories":[],"categories_nodes":[],"categories_segments":[],"categories_sizes":[],"default_left":[0,0,0,0,0,0,0,0,0,0,0,0,0,0,0,0,0,0,0,0,0,0,0,0,0,0,0,0,0],"id":49,"left_children":[1,3,5,7,9,11,13,15,-1,17,19,21,23,25,27,-1,-1,-1,-1,-1,-1,-1,-1,-1,-1,-1,-1,-1,-1],"loss_changes":[1.0637042E4,1.5640107E3,1.8768335E3,1.2177002E2,3.560625E2,2.4109557E2,2.2687012E2,7.5371094E0,0E0,3.9995117E1,1.9448853E1,2.149527E1,3.431776E1,3.524756E1,2.6727783E1,0E0,0E0,0E0,0E0,0E0,0E0,0E0,0E0,0E0,0E0,0E0,0E0,0E0,0E0],"parents":[2147483647,0,0,1,1,2,2,3,3,4,4,5,5,6,6,7,7,9,9,10,10,11,11,12,12,13,13,14,